<?xml version="1.0"?>
<opencv_storage>
<opencv_ml_svm>
  <format>3</format>
  <svmType>C_SVC</svmType>
  <kernel>
    <type>RBF</type>
    <gamma>1.</gamma></kernel>
  <C>1000.</C>
  <term_criteria><iterations>100</iterations></term_criteria>
  <var_count>128</var_count>
  <class_count>13</class_count>
  <class_labels type_id="opencv-matrix">
    <rows>13</rows>
    <cols>1</cols>
    <dt>i</dt>
    <data>
      -96 -64 0 1 2 3 4 5 6 7 8 9 48</data></class_labels>
  <sv_total>4803</sv_total>
  <support_vectors>
    <_>
      0. 0. 0. 0. 0. 0. 0. 0. 0. 0. 0. 0. 0. 0. 0. 0. 0. 6.66666701e-02
      0. 6.66666701e-02 0. 0. 0. 0. 6.66666701e-02 0. 0. 0. 0. 0.
      6.66666701e-02 0. 0. 0. 0. 0. 6.66666701e-02 0. 0. 6.66666701e-02
      0. 0. 0. 0. 0. 0. 0. 0. 0. 0. 0. 0. 0. 0. 0. 0. 0. 0.
      6.66666701e-02 6.66666701e-02 0. 0. 0. 0. 0. 6.66666701e-02 0. 0.
      0. 0. 0. 0. 0. 0. 0. 0. 0. 0. 0. 0. 6.66666701e-02 6.66666701e-02
      0. 0. 0. 0. 0. 6.66666701e-02 0. 0. 0. 0. 0. 0. 0. 0. 0. 0. 0. 0.
      0. 0. 0. 0. 0. 0. 0. 0. 6.66666701e-02 0. 0. 6.66666701e-02
      6.66666701e-02 0. 0. 0. 0. 0. 0. 0. 0. 0. 0. 0. 0. 0. 0. 0.</_>
    <_>
      0. 0. 0. 0. 0. 0. 0. 0. 0. 0. 0. 0. 0. 0. 0. 0. 0. 0. 0. 0. 0. 0.
      0. 0. 0. 0. 0. 2.00000003e-01 0. 0. 0. 0. 0. 0. 0. 0. 0. 0. 0. 0.
      0. 0. 0. 0. 0. 0. 0. 0. 0. 0. 0. 0. 0. 0. 0. 0. 0. 0. 0. 0. 0. 0.
      0. 0. 0. 0. 0. 0. 0. 0. 0. 0. 0. 0. 0. 0. 0. 0. 0. 0. 0. 0. 0. 0.
      0. 0. 0. 0. 0. 2.00000003e-01 0. 0. 2.00000003e-01 0. 0. 0. 0. 0.
      2.00000003e-01 0. 0. 0. 0. 0. 0. 0. 0. 2.00000003e-01 0. 0. 0. 0.
      0. 0. 0. 0. 0. 0. 0. 0. 0. 0. 0. 0. 0. 0. 0. 0.</_>
    <_>
      0. 0. 0. 0. 0. 0. 5.55555560e-02 0. 0. 0. 0. 0. 0. 0. 0. 0. 0. 0.
      0. 0. 0. 0. 0. 0. 0. 0. 5.55555560e-02 0. 0. 0. 0. 5.55555560e-02
      5.55555560e-02 0. 1.11111112e-01 0. 0. 0. 0. 0. 0. 0. 0. 0. 0. 0.
      5.55555560e-02 0. 0. 0. 0. 0. 0. 5.55555560e-02 0. 0.
      5.55555560e-02 0. 0. 0. 0. 0. 0. 0. 5.55555560e-02 0. 0. 0. 0. 0.
      0. 0. 0. 0. 5.55555560e-02 0. 0. 0. 0. 5.55555560e-02 0. 0.
      5.55555560e-02 0. 0. 0. 0. 0. 0. 5.55555560e-02 0. 0. 0. 0. 0. 0.
      0. 0. 0. 0. 5.55555560e-02 0. 0. 0. 0. 5.55555560e-02 0. 0. 0. 0.
      0. 0. 5.55555560e-02 0. 5.55555560e-02 0. 0. 0. 0. 0. 0. 0. 0. 0.
      0. 0. 0. 0.</_>
    <_>
      5.00000007e-02 0. 0. 0. 0. 5.00000007e-02 0. 0. 0. 5.00000007e-02
      0. 0. 0. 0. 0. 0. 0. 0. 0. 0. 0. 0. 5.00000007e-02 0. 0. 0. 0. 0.
      0. 0. 5.00000007e-02 0. 5.00000007e-02 0. 0. 0. 0. 0. 0. 0. 0. 0.
      0. 0. 0. 0. 0. 0. 0. 0. 0. 0. 0. 0. 0. 0. 0. 5.00000007e-02 0. 0.
      0. 0. 0. 0. 0. 0. 0. 0. 0. 0. 0. 5.00000007e-02 0. 0. 0. 0. 0. 0.
      0. 0. 0. 5.00000007e-02 0. 0. 1.00000001e-01 0. 0. 0. 0. 0. 0. 0.
      0. 5.00000007e-02 0. 0. 5.00000007e-02 0. 0. 0. 0. 5.00000007e-02
      5.00000007e-02 0. 0. 5.00000007e-02 0. 5.00000007e-02 0. 0. 0. 0.
      0. 0. 0. 0. 0. 0. 5.00000007e-02 0. 0. 0. 0. 1.00000001e-01 0. 0.
      0. 0.</_>
    <_>
      0. 0. 0. 0. 0. 0. 0. 0. 0. 0. 0. 0. 0. 0. 0. 0. 0. 0. 0. 0. 0. 0.
      0. 0. 0. 0. 0. 0. 0. 0. 1.11111112e-01 0. 0. 0. 0. 0.
      1.11111112e-01 0. 1.11111112e-01 0. 0. 0. 0. 0. 0. 0. 0. 0. 0. 0.
      0. 0. 1.11111112e-01 0. 0. 0. 0. 0. 0. 1.11111112e-01 0. 0. 0. 0.
      0. 0. 0. 0. 0. 0. 0. 1.11111112e-01 0. 0. 0. 0. 1.11111112e-01 0.
      0. 0. 0. 0. 0. 0. 0. 0. 0. 0. 1.11111112e-01 0. 0. 0. 0. 0. 0. 0.
      0. 0. 0. 0. 0. 0. 0. 0. 0. 0. 0. 0. 1.11111112e-01 0. 0. 0. 0. 0.
      0. 0. 0. 0. 0. 0. 0. 0. 0. 0. 0. 0. 0. 0.</_>
    <_>
      7.69230798e-02 0. 0. 0. 0. 0. 0. 0. 7.69230798e-02 0. 0. 0. 0. 0.
      0. 0. 0. 0. 0. 0. 0. 0. 0. 0. 0. 0. 0. 0. 0. 0. 0. 0. 0. 0. 0. 0.
      0. 0. 0. 0. 0. 0. 0. 0. 0. 0. 0. 1.53846160e-01 0. 0. 0. 0. 0. 0.
      0. 0. 7.69230798e-02 0. 7.69230798e-02 0. 0. 0. 0. 0. 0. 0. 0. 0.
      0. 0. 0. 0. 0. 0. 0. 0. 0. 0. 0. 0. 0. 7.69230798e-02 0.
      7.69230798e-02 0. 0. 0. 0. 0. 0. 0. 0. 7.69230798e-02 0. 0. 0. 0.
      0. 0. 0. 0. 0. 0. 0. 0. 0. 0. 7.69230798e-02 0. 7.69230798e-02 0.
      0. 0. 0. 0. 0. 0. 7.69230798e-02 0. 0. 0. 0. 0. 0. 0. 0.
      7.69230798e-02 0.</_>
    <_>
      0. 0. 0. 0. 0. 0. 0. 0. 1.81818187e-01 0. 0. 0. 0. 0.
      9.09090936e-02 0. 0. 0. 0. 0. 0. 0. 0. 0. 0. 0. 0. 0. 0. 0.
      9.09090936e-02 0. 0. 0. 0. 0. 0. 1.81818187e-01 0. 0. 0. 0. 0. 0.
      9.09090936e-02 0. 0. 0. 0. 0. 0. 0. 0. 0. 0. 0. 0. 0. 0.
      9.09090936e-02 0. 0. 0. 0. 0. 0. 0. 0. 0. 0. 0. 0. 0. 0. 0. 0. 0.
      0. 0. 0. 0. 0. 0. 0. 0. 0. 9.09090936e-02 0. 0. 0. 9.09090936e-02
      0. 0. 0. 0. 0. 0. 0. 0. 0. 0. 0. 0. 0. 0. 0. 0. 0. 0. 0. 0. 0. 0.
      0. 0. 0. 0. 9.09090936e-02 0. 0. 0. 0. 0. 0. 0. 0. 0. 0.</_>
    <_>
      0. 0. 0. 0. 0. 0. 0. 0. 0. 0. 0. 0. 0. 0. 0. 0. 0. 0. 0. 0. 0. 0.
      0. 0. 0. 0. 0. 0. 0. 0. 0. 0. 0. 0. 1.00000001e-01 0. 0. 0. 0. 0.
      0. 0. 0. 0. 1.00000001e-01 0. 0. 0. 0. 0. 0. 0. 0. 0. 0. 0. 0. 0.
      0. 0. 0. 1.00000001e-01 0. 0. 0. 0. 0. 0. 1.00000001e-01 0. 0. 0.
      0. 0. 0. 2.00000003e-01 0. 0. 0. 0. 0. 2.00000003e-01 0. 0. 0. 0.
      0. 0. 0. 0. 0. 0. 1.00000001e-01 0. 0. 0. 0. 0. 0. 0. 0. 0. 0. 0.
      1.00000001e-01 0. 0. 0. 0. 0. 0. 0. 0. 0. 0. 0. 0. 0. 0. 0. 0. 0.
      0. 0. 0. 0. 0. 0.</_>
    <_>
      0. 0. 0. 0. 0. 4.76190485e-02 0. 0. 0. 0. 0. 0. 0. 0. 0. 0. 0. 0.
      0. 0. 0. 0. 0. 0. 0. 0. 4.76190485e-02 0. 0. 0. 0. 0. 0. 0. 0. 0.
      0. 0. 0. 9.52380970e-02 0. 4.76190485e-02 0. 0. 0. 0. 0.
      4.76190485e-02 0. 0. 0. 0. 4.76190485e-02 0. 4.76190485e-02 0. 0.
      0. 0. 0. 0. 4.76190485e-02 0. 0. 0. 0. 4.76190485e-02 0. 0. 0. 0.
      0. 0. 0. 4.76190485e-02 4.76190485e-02 0. 4.76190485e-02 0. 0. 0.
      0. 0. 0. 0. 4.76190485e-02 0. 0. 0. 0. 4.76190485e-02 0.
      4.76190485e-02 0. 4.76190485e-02 0. 4.76190485e-02 0. 0. 0. 0. 0.
      0. 0. 0. 0. 4.76190485e-02 0. 0. 0. 0. 4.76190485e-02 0. 0. 0. 0.
      0. 0. 0. 0. 0. 0. 0. 0. 0. 0. 0. 4.76190485e-02</_>
    <_>
      0. 0. 0. 0. 0. 0. 0. 1.11111112e-01 0. 0. 0. 0. 0. 0. 0.
      1.11111112e-01 0. 0. 0. 0. 0. 0. 0. 0. 0. 0. 0. 0. 0. 0. 0. 0. 0.
      0. 0. 0. 0. 0. 0. 0. 0. 0. 0. 0. 0. 1.11111112e-01 0. 0. 0. 0. 0.
      0. 0. 0. 0. 0. 0. 0. 0. 0. 0. 0. 0. 0. 0. 0. 0. 0. 0. 0. 0. 0. 0.
      0. 0. 1.11111112e-01 0. 0. 0. 0. 0. 0. 0. 0. 1.11111112e-01 0.
      1.11111112e-01 0. 0. 0. 0. 0. 0. 1.11111112e-01 0. 0. 0. 0. 0. 0.
      0. 0. 0. 0. 0. 0. 0. 0. 0. 0. 0. 0. 0. 0. 0. 0. 0. 0. 0. 0. 0. 0.
      0. 0. 1.11111112e-01 0. 1.11111112e-01 0.</_>
    <_>
      0. 0. 0. 0. 0. 0. 0. 0. 0. 0. 0. 0. 0. 0. 0. 0. 0. 0. 0.
      1.42857149e-01 0. 0. 0. 0. 0. 0. 0. 0. 0. 0. 0. 0. 0. 0. 0. 0. 0.
      0. 0. 0. 0. 0. 0. 0. 0. 0. 1.42857149e-01 0. 0. 0. 0. 0. 0. 0. 0.
      0. 0. 0. 0. 0. 0. 0. 0. 0. 1.42857149e-01 0. 0. 0. 0. 0. 0. 0. 0.
      0. 0. 0. 0. 0. 0. 0. 0. 0. 0. 0. 0. 0. 0. 0. 1.42857149e-01 0. 0.
      0. 0. 0. 0. 0. 0. 0. 0. 0. 0. 0. 0. 0. 0. 0. 0. 0. 1.42857149e-01
      0. 0. 0. 1.42857149e-01 0. 0. 0. 0. 0. 0. 0. 1.42857149e-01 0. 0.
      0. 0. 0. 0. 0.</_>
    <_>
      0. 0. 0. 0. 0. 0. 0. 0. 0. 0. 0. 0. 0. 0. 0. 0. 0. 0. 0. 0. 0. 0.
      0. 0. 9.09090936e-02 0. 9.09090936e-02 0. 0. 0. 0. 0. 0. 0. 0. 0.
      0. 0. 0. 0. 0. 0. 0. 0. 0. 0. 9.09090936e-02 0. 0. 0. 0. 0. 0. 0.
      0. 0. 0. 0. 0. 0. 0. 9.09090936e-02 0. 0. 0. 0. 9.09090936e-02 0.
      0. 0. 0. 0. 0. 0. 0. 0. 0. 0. 0. 0. 0. 0. 0. 0. 0. 0. 0.
      9.09090936e-02 0. 0. 0. 0. 9.09090936e-02 0. 0. 0. 0. 0. 0. 0.
      9.09090936e-02 0. 0. 0. 0. 0. 0. 0. 0. 9.09090936e-02 0. 0. 0. 0.
      0. 0. 0. 0. 0. 0. 9.09090936e-02 0. 0. 0. 0. 9.09090936e-02 0. 0.</_>
    <_>
      0. 0. 0. 0. 0. 0. 0. 0. 0. 0. 0. 0. 0. 0. 0. 0. 0. 0. 0. 0. 0. 0.
      0. 0. 0. 0. 0. 0. 0. 0. 0. 0. 0. 0. 0. 0. 0. 0. 0. 0. 0. 0. 0. 0.
      0. 0. 0. 0. 0. 0. 0. 0. 0. 0. 0. 0. 0. 0. 0. 0. 0. 0. 0. 0. 0. 0.
      0. 0. 0. 0. 0. 0. 0. 0. 0. 0. 0. 0. 0. 0. 0. 0. 0. 5.00000000e-01
      0. 0. 0. 0. 0. 0. 0. 0. 0. 0. 0. 0. 0. 0. 0. 0. 0. 0. 0. 0. 0. 0.
      0. 0. 0. 0. 0. 0. 0. 0. 0. 0. 0. 0. 0. 0. 0. 0. 5.00000000e-01 0.
      0. 0. 0. 0.</_>
    <_>
      0. 0. 4.76190485e-02 0. 0. 4.76190485e-02 0. 0. 0. 4.76190485e-02
      0. 0. 0. 0. 0. 0. 4.76190485e-02 0. 0. 0. 0. 0. 0. 0. 0. 0. 0. 0.
      0. 0. 4.76190485e-02 0. 0. 0. 4.76190485e-02 0. 0. 0. 0. 0. 0. 0.
      0. 0. 4.76190485e-02 4.76190485e-02 0. 0. 0. 0. 4.76190485e-02 0.
      4.76190485e-02 4.76190485e-02 0. 0. 0. 4.76190485e-02 0. 0. 0. 0.
      0. 9.52380970e-02 0. 0. 0. 0. 0. 0. 0. 9.52380970e-02 0. 0. 0. 0.
      0. 0. 0. 0. 0. 0. 0. 9.52380970e-02 0. 0. 0. 0. 0. 0. 0. 0. 0.
      4.76190485e-02 0. 0. 0. 0. 0. 0. 0. 0. 0. 0. 0. 0. 0. 0. 0. 0. 0.
      0. 4.76190485e-02 0. 0. 0. 0. 0. 0. 0. 0. 0. 4.76190485e-02 0. 0.
      0. 0. 0.</_>
    <_>
      0. 0. 0. 0. 0. 0. 0. 0. 0. 0. 0. 0. 0. 0. 0. 0. 0. 0. 0. 0. 0. 0.
      0. 0. 0. 0. 0. 0. 0. 0. 0. 0. 2.00000003e-01 0. 0. 0. 0.
      2.00000003e-01 0. 0. 0. 0. 0. 0. 0. 0. 0. 0. 0. 0. 0. 0. 0. 0. 0.
      0. 2.00000003e-01 0. 2.00000003e-01 0. 0. 0. 0. 0. 0. 0. 0. 0. 0.
      0. 0. 0. 0. 0. 0. 0. 0. 0. 0. 0. 0. 0. 0. 0. 2.00000003e-01 0. 0.
      0. 0. 0. 0. 0. 0. 0. 0. 0. 0. 0. 0. 0. 0. 0. 0. 0. 0. 0. 0. 0. 0.
      0. 0. 0. 0. 0. 0. 0. 0. 0. 0. 0. 0. 0. 0. 0. 0. 0. 0. 0.</_>
    <_>
      0. 0. 0. 0. 0. 0. 0. 0. 0. 0. 0. 0. 0. 0. 0. 0. 0. 0. 0. 0. 0. 0.
      0. 0. 0. 0. 0. 0. 0. 0. 0. 0. 0. 0. 0. 0. 0. 0. 0. 0. 0. 0. 0. 0.
      0. 0. 0. 0. 0. 0. 0. 0. 0. 0. 0. 0. 0. 0. 0. 0. 0. 0. 0. 0. 0.
      2.00000003e-01 0. 0. 0. 0. 0. 0. 0. 0. 0. 0. 0. 0. 0. 0. 0. 0. 0.
      0. 0. 0. 0. 0. 0. 0. 0. 0. 0. 0. 0. 0. 2.00000003e-01 0. 0.
      2.00000003e-01 0. 0. 0. 0. 0. 0. 0. 0. 0. 2.00000003e-01 0. 0.
      2.00000003e-01 0. 0. 0. 0. 0. 0. 0. 0. 0. 0. 0. 0. 0. 0. 0.</_>
    <_>
      0. 0. 0. 0. 0. 0. 0. 0. 0. 0. 0. 0. 0. 0. 5.88235296e-02 0.
      5.88235296e-02 0. 0. 0. 0. 0. 0. 0. 0. 0. 0. 5.88235296e-02 0. 0.
      0. 0. 5.88235296e-02 0. 0. 0. 0. 0. 0. 0. 0. 0. 0. 5.88235296e-02
      0. 0. 0. 0. 0. 0. 0. 5.88235296e-02 0. 0. 0. 0. 0. 5.88235296e-02
      0. 0. 0. 0. 0. 0. 0. 5.88235296e-02 0. 0. 0. 0. 0. 0. 0. 0. 0. 0.
      0. 0. 0. 5.88235296e-02 0. 0. 0. 0. 0. 0. 0. 0. 5.88235296e-02 0.
      0. 0. 0. 0. 0. 0. 0. 5.88235296e-02 5.88235296e-02 0. 0.
      5.88235296e-02 5.88235296e-02 0. 0. 0. 0. 5.88235296e-02 0. 0. 0.
      0. 5.88235296e-02 0. 0. 0. 0. 0. 0. 5.88235296e-02 0. 0. 0. 0. 0.
      0. 0. 0.</_>
    <_>
      0. 0. 0. 0. 0. 0. 0. 0. 0. 0. 0. 0. 0. 0. 0. 0. 0. 0. 0. 0. 0. 0.
      0. 0. 0. 0. 0. 0. 0. 0. 0. 0. 0. 0. 0. 0. 0. 0. 0. 0.
      1.66666672e-01 0. 0. 0. 0. 1.66666672e-01 0. 0. 0. 0. 0. 0. 0. 0.
      0. 0. 0. 0. 0. 0. 0. 0. 0. 0. 0. 0. 0. 0. 0. 0. 0. 0. 0. 0. 0. 0.
      0. 0. 0. 1.66666672e-01 0. 0. 0. 0. 0. 0. 0. 1.66666672e-01 0. 0.
      0. 0. 0. 0. 0. 0. 0. 0. 0. 1.66666672e-01 0. 0. 0. 0. 0. 0. 0. 0.
      0. 0. 0. 0. 0. 0. 0. 0. 1.66666672e-01 0. 0. 0. 0. 0. 0. 0. 0. 0.
      0. 0.</_>
    <_>
      0. 0. 0. 0. 0. 0. 0. 0. 0. 0. 0. 0. 0. 0. 0. 5.88235296e-02 0. 0.
      0. 0. 0. 0. 0. 0. 1.17647059e-01 0. 0. 0. 0. 0. 0. 0. 0. 0. 0. 0.
      0. 0. 0. 0. 5.88235296e-02 0. 0. 5.88235296e-02 0. 0.
      5.88235296e-02 0. 0. 0. 0. 0. 5.88235296e-02 0. 5.88235296e-02 0.
      5.88235296e-02 0. 0. 0. 0. 1.17647059e-01 0. 0. 0. 0. 0. 0.
      5.88235296e-02 0. 0. 0. 0. 0. 0. 0. 0. 0. 0. 5.88235296e-02 0. 0.
      0. 0. 0. 0. 0. 0. 0. 0. 0. 0. 0. 0. 0. 0. 0. 0. 0. 0. 0. 0. 0. 0.
      0. 0. 0. 0. 0. 5.88235296e-02 0. 0. 5.88235296e-02 0. 0. 0. 0. 0.
      0. 0. 0. 0. 5.88235296e-02 5.88235296e-02 0. 0. 0. 0.</_>
    <_>
      0. 0. 0. 0. 0. 0. 0. 0. 0. 0. 0. 0. 0. 0. 0. 0. 0. 0. 0. 0. 0. 0.
      0. 0. 0. 0. 0. 0. 0. 0. 0. 0. 0. 0. 0. 0. 0. 0. 0. 0. 0. 0. 0. 0.
      0. 0. 0. 0. 0. 0. 0. 0. 0. 0. 0. 0. 0. 0. 0. 0. 0. 0. 0. 0. 0. 0.
      5.00000000e-01 0. 0. 0. 0. 0. 0. 0. 0. 0. 0. 0. 0. 0. 0. 0. 0. 0.
      0. 0. 0. 0. 0. 0. 0. 0. 0. 0. 0. 0. 0. 0. 0. 0. 0. 0. 0. 0. 0. 0.
      0. 0. 0. 5.00000000e-01 0. 0. 0. 0. 0. 0. 0. 0. 0. 0. 0. 0. 0. 0.
      0. 0. 0. 0.</_>
    <_>
      7.14285746e-02 0. 0. 0. 0. 0. 0. 0. 0. 0. 0. 0. 0. 0. 0. 0. 0. 0.
      0. 0. 0. 0. 0. 0. 0. 0. 0. 7.14285746e-02 0. 0. 0. 0. 0. 0. 0. 0.
      0. 0. 0. 0. 0. 0. 0. 0. 0. 0. 0. 0. 0. 0. 0. 7.14285746e-02 0. 0.
      0. 0. 0. 0. 7.14285746e-02 0. 0. 7.14285746e-02 0. 0. 0.
      1.42857149e-01 0. 0. 0. 0. 0. 0. 0. 0. 7.14285746e-02 0. 0. 0. 0.
      0. 0. 0. 0. 0. 0. 0. 0. 0. 0. 7.14285746e-02 0. 1.42857149e-01 0.
      0. 0. 0. 0. 0. 0. 0. 7.14285746e-02 0. 0. 0. 0. 7.14285746e-02 0.
      0. 0. 0. 7.14285746e-02 0. 0. 0. 0. 0. 0. 0. 0. 0. 0. 0. 0. 0. 0.
      0. 0. 0.</_>
    <_>
      0. 0. 0. 0. 0. 0. 0. 0. 0. 0. 0. 0. 0. 0. 0. 0. 0. 0. 0. 0. 0. 0.
      0. 0. 0. 0. 0. 0. 0. 0. 0. 0. 0. 0. 0. 0. 0. 0. 0. 0.
      1.25000000e-01 2.50000000e-01 0. 0. 0. 0. 1.25000000e-01 0. 0. 0.
      0. 0. 0. 0. 0. 0. 0. 0. 0. 0. 0. 1.25000000e-01 0. 1.25000000e-01
      0. 0. 0. 0. 0. 0. 0. 0. 0. 0. 1.25000000e-01 0. 0. 0. 0. 0. 0. 0.
      0. 0. 0. 0. 0. 0. 0. 1.25000000e-01 0. 0. 0. 0. 0. 0. 0. 0. 0. 0.
      0. 0. 0. 0. 0. 0. 0. 0. 0. 0. 0. 0. 0. 0. 0. 0. 0. 0. 0. 0. 0. 0.
      0. 0. 0. 0. 0. 0.</_>
    <_>
      0. 0. 0. 0. 0. 0. 0. 0. 0. 0. 0. 0. 0. 0. 0. 0. 0. 0. 0. 0. 0. 0.
      0. 0. 1.25000000e-01 0. 0. 0. 0. 0. 0. 0. 0. 0. 0. 0. 0. 0. 0. 0.
      1.25000000e-01 0. 0. 0. 0. 0. 0. 0. 0. 0. 0. 0. 0. 0. 0. 0.
      1.25000000e-01 0. 0. 0. 0. 0. 0. 0. 0. 1.25000000e-01 0. 0. 0. 0.
      0. 0. 0. 0. 0. 0. 0. 0. 1.25000000e-01 0. 0. 0. 0. 0. 0. 0. 0. 0.
      0. 0. 0. 0. 1.25000000e-01 0. 0. 0. 0. 0. 0. 1.25000000e-01 0. 0.
      0. 0. 0. 0. 0. 0. 0. 0. 0. 0. 1.25000000e-01 0. 0. 0. 0. 0. 0. 0.
      0. 0. 0. 0. 0. 0. 0. 0.</_>
    <_>
      0. 0. 0. 0. 0. 0. 0. 0. 0. 0. 0. 0. 1.11111112e-01 0.
      5.55555560e-02 5.55555560e-02 0. 0. 0. 0. 0. 0. 0. 0. 0. 0. 0. 0.
      0. 0. 0. 0. 0. 0. 0. 0. 0. 0. 0. 0. 5.55555560e-02 0. 0. 0. 0.
      5.55555560e-02 0. 0. 0. 0. 0. 5.55555560e-02 0. 0. 0. 0. 0. 0. 0.
      0. 0. 0. 0. 0. 0. 0. 0. 0. 5.55555560e-02 0. 0. 0. 5.55555560e-02
      0. 0. 0. 0. 0. 0. 0. 0. 0. 0. 5.55555560e-02 0. 0. 0. 0. 0. 0. 0.
      0. 0. 0. 0. 0. 0. 0. 0. 0. 0. 0. 5.55555560e-02 0. 0. 0. 0.
      5.55555560e-02 0. 0. 0. 0. 0. 0. 0. 0. 1.66666672e-01 0.
      1.66666672e-01 0. 0. 0. 0. 0. 0. 0. 0. 0.</_>
    <_>
      0. 0. 0. 0. 0. 0. 0. 0. 0. 0. 0. 0. 0. 0. 0. 0. 0. 0. 0. 0. 0. 0.
      0. 0. 3.33333343e-01 0. 0. 0. 0. 0. 0. 0. 0. 0. 0. 0. 0. 0. 0. 0.
      0. 0. 0. 0. 0. 0. 0. 0. 0. 0. 0. 0. 0. 0. 0. 0. 0. 0. 0. 0. 0. 0.
      0. 0. 0. 0. 0. 0. 0. 0. 0. 0. 0. 0. 0. 0. 0. 0. 0. 0. 0. 0. 0. 0.
      0. 0. 0. 3.33333343e-01 0. 0. 0. 0. 0. 0. 0. 0. 0. 0. 0. 0. 0. 0.
      0. 0. 0. 0. 0. 0. 0. 0. 0. 0. 0. 0. 3.33333343e-01 0. 0. 0. 0. 0.
      0. 0. 0. 0. 0. 0. 0. 0.</_>
    <_>
      0. 0. 7.69230798e-02 0. 0. 0. 0. 0. 0. 0. 0. 0. 7.69230798e-02 0.
      0. 0. 0. 0. 0. 0. 0. 0. 0. 0. 0. 0. 0. 0. 0. 0. 0. 0. 0. 0.
      7.69230798e-02 0. 0. 0. 0. 0. 0. 7.69230798e-02 0. 0. 0. 0. 0. 0.
      0. 0. 0. 0. 0. 0. 0. 0. 0. 0. 0. 0. 0. 0. 0. 0. 0. 0. 0. 0. 0. 0.
      0. 0. 0. 0. 0. 0. 0. 7.69230798e-02 0. 0. 0. 0. 0. 0. 0. 0. 0.
      7.69230798e-02 0. 0. 0. 1.53846160e-01 0. 7.69230798e-02 0. 0. 0.
      0. 0. 0. 0. 0. 0. 0. 0. 7.69230798e-02 0. 0. 0. 0. 7.69230798e-02
      7.69230798e-02 0. 0. 0. 0. 0. 0. 7.69230798e-02 0. 0. 0. 0. 0. 0.
      0. 0. 0.</_>
    <_>
      0. 0. 0. 0. 0. 5.26315793e-02 0. 5.26315793e-02 0. 0. 0. 0. 0. 0.
      0. 0. 0. 0. 0. 0. 0. 0. 0. 0. 0. 0. 0. 0. 0. 0. 0. 0. 0.
      5.26315793e-02 0. 0. 0. 0. 0. 0. 0. 0. 0. 0. 0. 0. 0. 0. 0. 0.
      5.26315793e-02 0. 0. 5.26315793e-02 0. 0. 0. 0. 0. 0. 0. 0. 0. 0.
      0. 0. 0. 0. 5.26315793e-02 0. 0. 0. 5.26315793e-02 0. 0. 0. 0. 0.
      0. 0. 5.26315793e-02 5.26315793e-02 0. 5.26315793e-02 0.
      5.26315793e-02 0. 5.26315793e-02 0. 0. 0. 0. 0. 0. 0. 0.
      5.26315793e-02 5.26315793e-02 0. 0. 0. 0. 0. 0. 0. 0.
      5.26315793e-02 0. 0. 5.26315793e-02 5.26315793e-02 0. 0. 0. 0. 0.
      0. 0. 0. 0. 5.26315793e-02 0. 5.26315793e-02 0. 0. 0. 0. 0.</_>
    <_>
      5.26315793e-02 0. 0. 0. 0. 0. 0. 0. 0. 0. 0. 0. 0. 0. 0. 0. 0. 0.
      0. 0. 0. 0. 5.26315793e-02 0. 0. 0. 5.26315793e-02 0. 0. 0. 0. 0.
      0. 0. 0. 0. 0. 0. 0. 0. 0. 0. 0. 0. 0. 0. 0. 5.26315793e-02
      5.26315793e-02 0. 0. 0. 0. 0. 0. 0. 1.05263159e-01 0. 0. 0. 0.
      5.26315793e-02 0. 0. 0. 0. 0. 0. 0. 0. 0. 5.26315793e-02 0. 0.
      5.26315793e-02 0. 0. 0. 0. 0. 0. 0. 5.26315793e-02 0.
      1.05263159e-01 5.26315793e-02 0. 0. 0. 0. 0. 0. 0. 0. 0. 0. 0. 0.
      0. 5.26315793e-02 0. 0. 0. 0. 0. 0. 0. 0. 0. 5.26315793e-02 0. 0.
      5.26315793e-02 0. 0. 0. 0. 0. 0. 0. 5.26315793e-02 0. 0. 0. 0.
      5.26315793e-02 0. 0.</_>
    <_>
      0. 0. 0. 0. 0. 0. 0. 0. 0. 0. 0. 0. 0. 0. 0. 0. 0. 0. 0. 0. 0. 0.
      0. 0. 0. 0. 0. 0. 0. 0. 0. 0. 0. 0. 0. 0. 0. 0. 0. 0. 0. 0. 0. 0.
      1.81818187e-01 0. 0. 0. 0. 0. 9.09090936e-02 0. 0. 0. 0. 0. 0.
      9.09090936e-02 0. 0. 0. 0. 0. 9.09090936e-02 9.09090936e-02 0. 0.
      0. 0. 0. 0. 0. 0. 0. 0. 0. 0. 9.09090936e-02 0. 0. 0. 0. 0.
      9.09090936e-02 0. 0. 0. 0. 0. 0. 0. 0. 9.09090936e-02 0. 0. 0. 0.
      0. 0. 0. 0. 0. 0. 0. 0. 0. 0. 0. 9.09090936e-02 0. 0. 0. 0. 0. 0.
      0. 9.09090936e-02 0. 0. 0. 0. 0. 0. 0. 0. 0. 0. 0.</_>
    <_>
      0. 0. 0. 0. 0. 0. 0. 6.25000000e-02 0. 6.25000000e-02 0. 0. 0. 0.
      0. 0. 0. 0. 0. 6.25000000e-02 0. 0. 0. 0. 0. 0. 0. 0. 0. 0.
      6.25000000e-02 0. 0. 0. 0. 0. 0. 0. 0. 6.25000000e-02 0. 0. 0. 0.
      0. 0. 0. 0. 0. 0. 0. 0. 0. 0. 0. 0. 0. 0. 0. 0. 0. 0. 0. 0. 0. 0.
      0. 0. 0. 0. 0. 0. 0. 0. 0. 0. 1.87500000e-01 0. 0. 1.25000000e-01
      0. 0. 0. 0. 0. 0. 0. 6.25000000e-02 0. 0. 0. 0. 0. 0.
      6.25000000e-02 0. 0. 0. 0. 0. 0. 0. 0. 0. 0. 0. 0. 6.25000000e-02
      0. 0. 0. 0. 0. 0. 0. 0. 0. 1.25000000e-01 0. 0. 0. 0. 0. 0. 0. 0.
      6.25000000e-02 0.</_>
    <_>
      0. 0. 0. 0. 0. 0. 0. 0. 0. 0. 0. 0. 0. 0. 0. 0. 0. 0. 0.
      6.25000000e-02 0. 0. 0. 0. 0. 0. 0. 0. 0. 0. 0. 0. 0. 0. 0. 0. 0.
      0. 0. 6.25000000e-02 0. 6.25000000e-02 0. 6.25000000e-02
      6.25000000e-02 6.25000000e-02 0. 0. 0. 0. 0. 0. 0. 0. 0. 0. 0. 0.
      0. 0. 0. 0. 0. 0. 0. 0. 0. 0. 0. 0. 0. 0. 0. 0. 0. 1.25000000e-01
      0. 0. 0. 6.25000000e-02 0. 0. 0. 0. 0. 6.25000000e-02
      6.25000000e-02 0. 0. 0. 6.25000000e-02 0. 0. 0. 0. 0. 0. 0. 0. 0.
      0. 0. 0. 0. 0. 0. 0. 0. 6.25000000e-02 0. 0. 0. 0. 0. 0. 0. 0. 0.
      6.25000000e-02 0. 0. 0. 0. 0. 6.25000000e-02 0. 6.25000000e-02 0.</_>
    <_>
      0. 0. 0. 0. 0. 0. 0. 0. 0. 0. 0. 0. 0. 0. 0. 0. 0. 0. 0. 0. 0. 0.
      0. 0. 0. 0. 0. 1.00000001e-01 0. 0. 0. 0. 0. 2.00000003e-01 0. 0.
      0. 0. 0. 0. 0. 0. 0. 0. 0. 0. 0. 0. 0. 0. 0. 0. 0. 0. 0. 0. 0.
      1.00000001e-01 0. 0. 0. 0. 0. 1.00000001e-01 0. 0. 0. 0. 0. 0. 0.
      0. 0. 1.00000001e-01 0. 0. 0. 0. 0. 1.00000001e-01 0. 0. 0.
      1.00000001e-01 0. 0. 0. 0. 0. 0. 0. 0. 0. 0. 0. 0. 0. 0.
      1.00000001e-01 0. 0. 0. 0. 0. 0. 0. 0. 0. 0. 0. 0. 0. 0. 0. 0. 0.
      0. 0. 0. 0. 0. 0. 0. 0. 1.00000001e-01 0. 0. 0.</_>
    <_>
      0. 0. 0. 0. 0. 0. 0. 0. 0. 0. 0. 0. 0. 0. 0. 0. 0. 0. 0. 0. 0. 0.
      0. 0. 1.00000001e-01 0. 0. 0. 0. 0. 0. 0. 0. 0. 1.00000001e-01 0.
      0. 0. 0. 0. 0. 0. 0. 0. 0. 0. 0. 0. 0. 0. 0. 0. 0. 0. 0. 0. 0. 0.
      0. 0. 0. 0. 0. 0. 1.00000001e-01 1.00000001e-01 3.00000012e-01 0.
      0. 0. 0. 0. 0. 0. 0. 0. 0. 0. 0. 0. 0. 0. 0. 0. 0. 0. 0. 0. 0.
      1.00000001e-01 0. 0. 0. 0. 1.00000001e-01 0. 0. 0. 0. 0. 0. 0. 0.
      0. 0. 0. 0. 0. 0. 0. 0. 0. 0. 0. 0. 0. 0. 0. 0. 0. 1.00000001e-01
      0. 0. 0. 0. 0. 0. 0.</_>
    <_>
      0. 0. 5.88235296e-02 0. 0. 0. 0. 0. 0. 0. 0. 0. 0. 0. 0. 0. 0. 0.
      0. 0. 0. 0. 0. 0. 0. 0. 0. 0. 0. 0. 5.88235296e-02 0. 0. 0. 0. 0.
      0. 0. 0. 0. 0. 0. 0. 0. 5.88235296e-02 0. 0. 5.88235296e-02 0. 0.
      0. 0. 0. 0. 0. 0. 0. 0. 0. 0. 0. 5.88235296e-02 0. 0.
      5.88235296e-02 0. 0. 0. 0. 0. 0. 0. 0. 0. 5.88235296e-02 0. 0. 0.
      0. 0. 0. 0. 0. 5.88235296e-02 0. 0. 0. 5.88235296e-02 0.
      5.88235296e-02 0. 0. 5.88235296e-02 0. 0. 0. 5.88235296e-02 0. 0.
      0. 5.88235296e-02 0. 5.88235296e-02 0. 0. 0. 0. 0. 0. 0. 0. 0. 0.
      0. 0. 0. 5.88235296e-02 0. 5.88235296e-02 5.88235296e-02 0. 0. 0.
      0. 0. 0. 0. 0.</_>
    <_>
      0. 0. 0. 0. 7.69230798e-02 7.69230798e-02 0. 0. 0. 7.69230798e-02
      0. 0. 0. 0. 0. 0. 0. 0. 0. 7.69230798e-02 7.69230798e-02 0. 0. 0.
      0. 0. 0. 0. 0. 0. 7.69230798e-02 7.69230798e-02 0. 7.69230798e-02
      0. 0. 0. 0. 0. 0. 0. 0. 0. 0. 7.69230798e-02 0. 0. 0.
      7.69230798e-02 0. 0. 0. 0. 0. 0. 0. 0. 0. 0. 0. 7.69230798e-02 0.
      0. 0. 0. 0. 0. 0. 0. 0. 0. 0. 0. 0. 0. 0. 0. 0. 0. 0. 0. 0. 0.
      7.69230798e-02 0. 0. 0. 7.69230798e-02 0. 0. 0. 0. 0. 0. 0. 0. 0.
      0. 0. 0. 0. 0. 0. 0. 0. 0. 0. 0. 0. 0. 0. 0. 0. 0. 0. 0. 0. 0. 0.
      0. 0. 0. 0. 0. 0. 0. 0. 0.</_>
    <_>
      0. 0. 0. 0. 0. 0. 0. 0. 0. 0. 0. 0. 0. 0. 0. 0. 1.42857149e-01 0.
      0. 0. 0. 0. 0. 0. 0. 0. 0. 0. 0. 0. 0. 0. 0. 0. 0. 0.
      1.42857149e-01 0. 0. 0. 0. 0. 0. 0. 0. 0. 0. 0. 0. 0. 0.
      1.42857149e-01 0. 0. 0. 0. 0. 0. 0. 0. 0. 0. 0. 0. 0. 0. 0. 0. 0.
      0. 0. 0. 0. 0. 0. 0. 0. 0. 1.42857149e-01 0. 0. 0. 0. 0. 0. 0. 0.
      0. 0. 0. 0. 0. 0. 0. 1.42857149e-01 0. 0. 0. 0. 0. 0. 0.
      1.42857149e-01 0. 0. 0. 0. 0. 0. 0. 0. 0. 0. 0. 1.42857149e-01 0.
      0. 0. 0. 0. 0. 0. 0. 0. 0. 0. 0. 0.</_>
    <_>
      0. 0. 0. 0. 0. 0. 0. 0. 0. 1.66666672e-01 0. 0. 0. 0. 0. 0. 0. 0.
      0. 0. 0. 0. 0. 0. 0. 0. 0. 0. 0. 0. 0. 0. 0. 0. 0. 0. 0. 0. 0. 0.
      0. 0. 0. 0. 0. 0. 0. 1.66666672e-01 0. 0. 0. 0. 0. 0. 0. 0. 0. 0.
      0. 0. 0. 0. 0. 0. 0. 0. 1.66666672e-01 0. 0. 0. 0. 0. 0. 0. 0. 0.
      0. 0. 0. 0. 0. 0. 1.66666672e-01 0. 0. 0. 0. 1.66666672e-01 0. 0.
      0. 0. 0. 0. 0. 0. 0. 0. 0. 0. 0. 0. 0. 0. 0. 1.66666672e-01 0. 0.
      0. 0. 0. 0. 0. 0. 0. 0. 0. 0. 0. 0. 0. 0. 0. 0. 0. 0. 0. 0.</_>
    <_>
      0. 0. 5.26315793e-02 0. 0. 0. 0. 0. 0. 1.57894731e-01 0. 0. 0. 0.
      5.26315793e-02 0. 0. 0. 0. 0. 0. 0. 5.26315793e-02 0. 0. 0. 0. 0.
      0. 0. 0. 0. 0. 0. 0. 0. 0. 0. 0. 0. 5.26315793e-02 0. 0. 0. 0. 0.
      0. 0. 0. 0. 0. 0. 0. 5.26315793e-02 0. 0. 0. 5.26315793e-02 0. 0.
      0. 0. 0. 0. 0. 0. 0. 0. 0. 0. 0. 0. 0. 0. 0. 0. 0. 0. 0. 0. 0. 0.
      0. 5.26315793e-02 0. 0. 0. 0. 0. 5.26315793e-02 1.05263159e-01 0.
      0. 0. 0. 0. 0. 0. 5.26315793e-02 0. 0. 0. 5.26315793e-02 0. 0. 0.
      1.05263159e-01 0. 0. 0. 0. 0. 0. 0. 0. 0. 5.26315793e-02 0. 0. 0.
      0. 0. 5.26315793e-02 0. 0. 0. 0. 0.</_>
    <_>
      5.26315793e-02 0. 0. 0. 0. 0. 0. 0. 0. 0. 0. 0. 0. 0. 0. 0. 0. 0.
      0. 5.26315793e-02 0. 0. 0. 0. 5.26315793e-02 0. 5.26315793e-02 0.
      0. 0. 0. 5.26315793e-02 0. 0. 0. 0. 0. 0. 0. 5.26315793e-02 0. 0.
      0. 0. 0. 0. 0. 0. 0. 0. 0. 0. 0. 0. 0. 0. 0. 0. 0. 0. 0. 0. 0. 0.
      0. 5.26315793e-02 0. 0. 0. 0. 0. 0. 0. 0. 1.05263159e-01 0. 0. 0.
      0. 0. 0. 0. 5.26315793e-02 0. 5.26315793e-02 0. 0. 0. 0. 0. 0. 0.
      0. 0. 0. 0. 0. 1.05263159e-01 0. 0. 0. 5.26315793e-02 0. 0. 0. 0.
      0. 0. 0. 0. 5.26315793e-02 0. 0. 0. 0. 0. 0. 0. 0. 5.26315793e-02
      0. 0. 0. 5.26315793e-02 0. 5.26315793e-02 5.26315793e-02 0.</_>
    <_>
      0. 0. 1.42857149e-01 0. 0. 0. 0. 0. 0. 0. 0. 0. 0. 0. 0. 0. 0. 0.
      0. 0. 0. 0. 0. 0. 0. 0. 0. 0. 0. 0. 0. 0. 0. 0. 0. 0. 0. 0. 0. 0.
      0. 0. 0. 0. 0. 0. 0. 0. 0. 0. 0. 0. 0. 0. 0. 0. 0. 0. 0. 0. 0.
      1.42857149e-01 0. 0. 0. 0. 0. 0. 0. 0. 0. 0. 0. 0. 0. 0. 0. 0. 0.
      0. 0. 0. 0. 0. 1.42857149e-01 0. 0. 0. 0. 0. 0. 0. 0. 0. 0. 0. 0.
      0. 1.42857149e-01 0. 0. 0. 0. 0. 0. 0. 2.85714298e-01 0. 0. 0. 0.
      0. 1.42857149e-01 0. 0. 0. 0. 0. 0. 0. 0. 0. 0. 0. 0. 0. 0. 0.</_>
    <_>
      0. 0. 0. 0. 0. 0. 0. 0. 0. 5.26315793e-02 0. 0. 0. 0. 0. 0.
      5.26315793e-02 0. 0. 0. 0. 0. 5.26315793e-02 0. 5.26315793e-02 0.
      0. 5.26315793e-02 0. 0. 0. 0. 0. 5.26315793e-02 0. 0. 0.
      1.57894731e-01 0. 0. 0. 0. 0. 0. 0. 0. 0. 0. 0. 0. 0. 0. 0. 0. 0.
      0. 0. 0. 0. 0. 0. 0. 0. 0. 0. 0. 0. 0. 5.26315793e-02 0. 0. 0. 0.
      0. 0. 0. 0. 0. 5.26315793e-02 0. 0. 0. 0. 5.26315793e-02 0. 0. 0.
      1.05263159e-01 0. 0. 0. 0. 0. 0. 0. 0. 5.26315793e-02 0. 0. 0. 0.
      5.26315793e-02 0. 0. 0. 0. 0. 0. 0. 0. 0. 0. 0. 0. 0. 0. 0. 0.
      5.26315793e-02 0. 0. 0. 0. 5.26315793e-02 0. 5.26315793e-02 0. 0.</_>
    <_>
      0. 0. 9.09090936e-02 0. 0. 0. 0. 0. 9.09090936e-02 0. 0. 0. 0. 0.
      0. 9.09090936e-02 0. 0. 0. 0. 0. 0. 9.09090936e-02 0. 0. 0. 0. 0.
      0. 0. 0. 0. 0. 0. 0. 0. 0. 0. 0. 0. 0. 0. 0. 0. 0. 0. 0. 0. 0. 0.
      0. 9.09090936e-02 0. 0. 0. 0. 0. 0. 0. 9.09090936e-02 0. 0. 0. 0.
      0. 0. 0. 0. 0. 0. 0. 0. 0. 0. 0. 1.81818187e-01 0. 0. 0. 0. 0. 0.
      0. 0. 0. 0. 0. 0. 0. 0. 0. 0. 0. 0. 0. 0. 0. 0. 9.09090936e-02 0.
      0. 0. 0. 0. 0. 9.09090936e-02 0. 0. 0. 0. 0. 0. 0. 0. 0. 0. 0. 0.
      0. 0. 0. 0. 0. 0. 9.09090936e-02 0. 0. 0.</_>
    <_>
      0. 0. 0. 0. 0. 0. 0. 0. 0. 0. 0. 0. 0. 0. 0. 0. 0. 0. 0.
      1.00000001e-01 0. 0. 0. 0. 0. 0. 0. 0. 0. 0. 0. 0. 0. 0. 0. 0. 0.
      0. 0. 0. 0. 0. 0. 0. 0. 0. 0. 0. 0. 0. 0. 0. 0. 0. 0. 0.
      1.00000001e-01 0. 0. 0. 0. 0. 0. 0. 0. 1.00000001e-01
      1.00000001e-01 1.00000001e-01 0. 0. 0. 0. 1.00000001e-01 0. 0. 0.
      0. 0. 0. 0. 0. 0. 0. 0. 0. 0. 0. 0. 0. 0. 0. 0. 0. 0. 0. 0. 0.
      1.00000001e-01 0. 0. 0. 0. 0. 0. 0. 0. 0. 0. 0. 0. 0.
      1.00000001e-01 0. 0. 1.00000001e-01 0. 0. 0. 0. 1.00000001e-01 0.
      0. 0. 0. 0. 0. 0. 0.</_>
    <_>
      0. 0. 0. 0. 0. 0. 0. 0. 0. 0. 0. 0. 0. 0. 0. 0. 0. 0. 0. 0. 0. 0.
      0. 0. 0. 0. 0. 0. 0. 0. 0. 0. 9.09090936e-02 0. 0. 0. 0. 0. 0. 0.
      0. 0. 0. 0. 0. 9.09090936e-02 0. 0. 0. 0. 0. 0. 0. 9.09090936e-02
      0. 0. 0. 9.09090936e-02 0. 0. 0. 0. 0. 0. 0. 0. 0. 0. 0. 0. 0.
      9.09090936e-02 0. 0. 0. 0. 0. 0. 0. 0. 0. 0. 0. 0. 0. 0. 0. 0. 0.
      0. 0. 0. 0. 9.09090936e-02 0. 0. 0. 0. 9.09090936e-02 0. 0.
      9.09090936e-02 0. 0. 9.09090936e-02 0. 9.09090936e-02 0.
      9.09090936e-02 0. 0. 0. 0. 0. 0. 0. 0. 0. 0. 0. 0. 0. 0. 0. 0. 0.
      0. 0.</_>
    <_>
      0. 0. 0. 0. 0. 0. 0. 0. 0. 0. 0. 0. 0. 0. 0. 1.66666672e-01 0. 0.
      0. 0. 0. 0. 0. 0. 0. 0. 0. 0. 0. 0. 0. 0. 0. 0. 0. 0. 0. 0. 0. 0.
      0. 0. 0. 0. 0. 0. 0. 0. 0. 0. 0. 0. 0. 0. 0. 0. 1.66666672e-01 0.
      0. 0. 0. 0. 0. 0. 0. 1.66666672e-01 0. 0. 0. 0. 0. 0. 0. 0. 0. 0.
      0. 0. 0. 0. 0. 0. 0. 0. 0. 0. 0. 0. 0. 0. 0. 0. 0. 0. 0. 0. 0. 0.
      0. 1.66666672e-01 1.66666672e-01 0. 0. 0. 0. 0. 0. 0. 0. 0. 0. 0.
      0. 0. 0. 0. 0. 0. 0. 0. 0. 0. 0. 1.66666672e-01 0. 0. 0. 0.</_>
    <_>
      0. 0. 0. 0. 0. 0. 0. 0. 0. 0. 0. 0. 0. 0. 0. 0. 1.42857149e-01 0.
      0. 0. 0. 0. 0. 0. 0. 0. 0. 0. 0. 0. 0. 0. 0. 0. 0. 0. 0. 0. 0. 0.
      0. 0. 0. 0. 1.42857149e-01 0. 0. 0. 0. 0. 0. 0. 0. 0. 0. 0. 0. 0.
      0. 0. 0. 0. 0. 0. 0. 0. 0. 0. 0. 0. 0. 0. 0. 0. 0. 0. 0.
      1.42857149e-01 1.42857149e-01 0. 0. 0. 0. 0. 0. 0. 0. 0. 0. 0. 0.
      0. 0. 0. 0. 0. 1.42857149e-01 0. 0. 0. 1.42857149e-01 0. 0. 0.
      1.42857149e-01 0. 0. 0. 0. 0. 0. 0. 0. 0. 0. 0. 0. 0. 0. 0. 0. 0.
      0. 0. 0. 0. 0. 0.</_>
    <_>
      0. 0. 0. 0. 0. 0. 0. 0. 0. 0. 0. 0. 0. 0. 0. 0. 0. 0. 0. 0. 0. 0.
      0. 0. 0. 0. 0. 0. 0. 0. 0. 0. 0. 0. 0. 0. 0. 0. 0. 2.00000003e-01
      0. 0. 0. 0. 0. 0. 0. 0. 0. 0. 0. 0. 0. 0. 0. 0. 2.00000003e-01 0.
      0. 0. 0. 0. 0. 0. 0. 0. 0. 0. 0. 0. 0. 0. 0. 0. 0. 0. 0. 0. 0. 0.
      0. 0. 0. 0. 0. 0. 0. 0. 0. 0. 2.00000003e-01 2.00000003e-01 0. 0.
      0. 0. 0. 0. 0. 0. 0. 0. 0. 0. 2.00000003e-01 0. 0. 0. 0. 0. 0. 0.
      0. 0. 0. 0. 0. 0. 0. 0. 0. 0. 0. 0. 0. 0. 0. 0.</_>
    <_>
      0. 0. 0. 0. 0. 3.33333343e-01 0. 0. 0. 0. 0. 0. 0. 0. 0. 0. 0. 0.
      0. 0. 0. 0. 0. 0. 0. 0. 0. 0. 0. 0. 0. 0. 0. 0. 0. 0. 0. 0. 0. 0.
      0. 0. 0. 0. 0. 3.33333343e-01 0. 0. 0. 0. 0. 0. 0. 0. 0. 0. 0. 0.
      0. 0. 0. 0. 0. 0. 0. 0. 3.33333343e-01 0. 0. 0. 0. 0. 0. 0. 0. 0.
      0. 0. 0. 0. 0. 0. 0. 0. 0. 0. 0. 0. 0. 0. 0. 0. 0. 0. 0. 0. 0. 0.
      0. 0. 0. 0. 0. 0. 0. 0. 0. 0. 0. 0. 0. 0. 0. 0. 0. 0. 0. 0. 0. 0.
      0. 0. 0. 0. 0. 0. 0. 0.</_>
    <_>
      0. 0. 0. 0. 0. 0. 0. 0. 1.00000001e-01 0. 0. 0. 0. 0. 0. 0. 0. 0.
      0. 0. 0. 0. 0. 0. 0. 0. 0. 0. 0. 0. 1.00000001e-01 0. 0. 0. 0. 0.
      0. 2.00000003e-01 0. 0. 0. 0. 0. 0. 0. 1.00000001e-01 0. 0. 0. 0.
      0. 0. 0. 0. 0. 0. 0. 0. 0. 0. 0. 0. 0. 0. 0. 0. 0. 0. 0. 0. 0. 0.
      0. 0. 0. 0. 0. 0. 0. 0. 0. 0. 0. 1.00000001e-01 0. 0.
      1.00000001e-01 0. 0. 0. 0. 0. 0. 0. 0. 0. 0. 0. 0. 0. 0.
      1.00000001e-01 0. 0. 0. 0. 1.00000001e-01 0. 0. 0. 0. 0. 0. 0. 0.
      0. 0. 0. 0. 0. 0. 0. 0. 0. 0. 0. 1.00000001e-01 0.</_>
    <_>
      0. 0. 1.25000000e-01 0. 0. 0. 0. 0. 0. 0. 0. 0. 0. 0. 0. 0. 0. 0.
      0. 0. 0. 0. 0. 0. 0. 0. 0. 0. 0. 0. 0. 0. 0. 0. 0. 0. 0. 0. 0. 0.
      0. 0. 0. 0. 0. 0. 0. 0. 0. 0. 0. 0. 0. 0. 0. 0. 0. 0. 0. 0. 0. 0.
      0. 0. 0. 0. 0. 0. 0. 0. 0. 1.25000000e-01 1.25000000e-01 0. 0. 0.
      0. 0. 0. 2.50000000e-01 0. 0. 0. 1.25000000e-01 0. 0. 0. 0. 0.
      1.25000000e-01 0. 0. 0. 0. 0. 0. 0. 0. 0. 0. 0. 0. 0. 0. 0. 0.
      1.25000000e-01 0. 0. 0. 0. 0. 0. 0. 0. 0. 0. 0. 0. 0. 0. 0. 0. 0.
      0. 0. 0. 0.</_>
    <_>
      0. 0. 0. 0. 0. 0. 0. 0. 5.88235296e-02 5.88235296e-02 0. 0. 0. 0.
      0. 0. 0. 0. 0. 0. 0. 0. 0. 0. 0. 0. 0. 0. 0. 0. 5.88235296e-02 0.
      0. 5.88235296e-02 0. 0. 0. 0. 0. 0. 0. 0. 0. 0. 0. 0.
      1.76470593e-01 0. 0. 0. 5.88235296e-02 0. 0. 0. 0. 0. 0.
      5.88235296e-02 0. 0. 0. 0. 0. 0. 0. 0. 0. 0. 0. 0. 0. 0. 0. 0. 0.
      0. 0. 0. 0. 5.88235296e-02 0. 0. 0. 0. 0. 1.76470593e-01 0. 0. 0.
      0. 0. 0. 0. 0. 0. 0. 0. 0. 0. 0. 0. 0. 0. 0. 0. 0. 0.
      5.88235296e-02 5.88235296e-02 0. 5.88235296e-02 0. 0. 0. 0. 0. 0.
      0. 0. 0. 0. 0. 0. 0. 0. 5.88235296e-02 0. 0.</_>
    <_>
      0. 0. 0. 0. 0. 7.69230798e-02 0. 0. 0. 1.53846160e-01 0. 0. 0. 0.
      0. 0. 0. 0. 0. 0. 0. 0. 0. 0. 0. 0. 0. 0. 0. 0. 0. 0. 0. 0. 0. 0.
      0. 0. 0. 0. 0. 0. 0. 7.69230798e-02 0. 0. 0. 0. 7.69230798e-02 0.
      0. 0. 0. 7.69230798e-02 0. 0. 0. 0. 0. 0. 0. 0. 0. 0. 0. 0. 0. 0.
      0. 0. 0. 0. 0. 7.69230798e-02 0. 7.69230798e-02 0. 7.69230798e-02
      0. 7.69230798e-02 0. 0. 0. 0. 0. 0. 0. 0. 0. 0. 0. 0. 0. 0.
      7.69230798e-02 0. 0. 0. 7.69230798e-02 0. 0. 7.69230798e-02 0. 0.
      0. 0. 0. 0. 0. 0. 0. 0. 0. 0. 0. 0. 0. 0. 0. 0. 0. 0. 0. 0. 0. 0.
      0. 0.</_>
    <_>
      0. 0. 0. 0. 0. 0. 0. 0. 0. 0. 0. 0. 0. 0. 0. 0. 0. 0. 0. 0. 0. 0.
      1.25000000e-01 0. 1.25000000e-01 0. 1.25000000e-01 1.25000000e-01
      0. 0. 0. 0. 0. 0. 0. 0. 0. 0. 0. 0. 0. 0. 0. 0. 0. 0. 0. 0. 0. 0.
      0. 0. 0. 0. 1.25000000e-01 0. 0. 0. 0. 0. 0. 0. 0. 0. 0. 0.
      1.25000000e-01 0. 0. 0. 0. 0. 0. 0. 0. 0. 0. 0. 0. 0. 0. 0. 0. 0.
      0. 0. 0. 0. 0. 0. 0. 1.25000000e-01 0. 0. 0. 0. 0. 0. 0. 0. 0. 0.
      0. 0. 0. 0. 0. 0. 0. 0. 0. 0. 0. 0. 0. 0. 0. 0. 0. 0. 0. 0. 0. 0.
      0. 0. 1.25000000e-01 0.</_>
    <_>
      0. 0. 0. 0. 0. 6.66666701e-02 0. 6.66666701e-02 6.66666701e-02 0.
      0. 0. 0. 0. 0. 6.66666701e-02 0. 0. 0. 0. 0. 0. 0. 0. 0. 0. 0. 0.
      0. 0. 6.66666701e-02 0. 0. 0. 0. 0. 0. 0. 0. 0. 0. 0. 0. 0. 0. 0.
      0. 0. 0. 0. 0. 0. 0. 0. 0. 0. 0. 0. 0. 1.33333340e-01 0. 0. 0.
      6.66666701e-02 0. 0. 0. 0. 0. 0. 0. 6.66666701e-02 1.33333340e-01
      0. 0. 0. 0. 0. 0. 6.66666701e-02 0. 6.66666701e-02 0. 0. 0. 0. 0.
      0. 0. 0. 6.66666701e-02 0. 6.66666701e-02 0. 0. 0. 0. 0. 0. 0. 0.
      0. 0. 0. 0. 0. 0. 0. 0. 0. 0. 0. 0. 0. 0. 0. 0. 0. 0. 0. 0. 0. 0.
      0. 0. 0. 0. 0.</_>
    <_>
      0. 0. 0. 0. 0. 6.25000000e-02 0. 0. 0. 0. 0. 0. 0. 0.
      6.25000000e-02 0. 0. 0. 0. 0. 0. 0. 0. 0. 0. 0. 0. 0. 0. 0. 0. 0.
      0. 0. 0. 0. 0. 6.25000000e-02 0. 0. 0. 0. 0. 0. 0. 0. 0. 0. 0. 0.
      0. 0. 0. 0. 0. 0. 0. 6.25000000e-02 0. 0. 0. 0. 0. 0. 0. 0. 0. 0.
      0. 0. 0. 0. 0. 0. 0. 1.25000000e-01 6.25000000e-02 0. 0. 0. 0. 0.
      0. 0. 0. 0. 1.25000000e-01 0. 0. 0. 0. 0. 0. 0. 0. 6.25000000e-02
      0. 0. 0. 0. 0. 0. 0. 0. 6.25000000e-02 0. 0. 0. 6.25000000e-02 0.
      6.25000000e-02 0. 0. 0. 0. 0. 0. 0. 0. 0. 0. 0. 0. 0. 0. 0.
      6.25000000e-02 1.25000000e-01</_>
    <_>
      0. 0. 0. 0. 0. 0. 0. 0. 0. 0. 0. 0. 0. 0. 0. 0. 0. 0. 0. 0. 0. 0.
      0. 0. 0. 0. 0. 0. 0. 0. 0. 0. 0. 0. 0. 0. 0. 0. 0. 0. 0. 0. 0. 0.
      0. 0. 0. 1.66666672e-01 0. 0. 1.66666672e-01 0. 1.66666672e-01 0.
      0. 0. 0. 0. 0. 0. 0. 0. 0. 0. 0. 0. 0. 0. 0. 0. 0. 0. 0. 0. 0. 0.
      0. 0. 0. 0. 0. 0. 0. 0. 0. 0. 0. 0. 0. 0. 0. 0. 1.66666672e-01 0.
      0. 0. 0. 0. 0. 0. 0. 0. 0. 0. 0. 0. 1.66666672e-01 1.66666672e-01
      0. 0. 0. 0. 0. 0. 0. 0. 0. 0. 0. 0. 0. 0. 0. 0. 0. 0. 0. 0.</_>
    <_>
      0. 0. 0. 0. 0. 0. 0. 0. 0. 0. 0. 0. 0. 0. 1.66666672e-01 0. 0. 0.
      0. 0. 0. 0. 0. 0. 0. 0. 0. 0. 0. 0. 0. 0. 0. 0. 0. 0. 0. 0. 0. 0.
      0. 0. 0. 0. 1.66666672e-01 0. 0. 0. 0. 0. 0. 0. 0. 0. 0. 0. 0. 0.
      0. 0. 0. 0. 0. 0. 0. 0. 0. 0. 0. 0. 0. 0. 0. 0. 0. 0.
      1.66666672e-01 0. 0. 0. 0. 0. 0. 0. 0. 0. 0. 0. 0. 0. 0. 0. 0.
      1.66666672e-01 0. 0. 0. 0. 0. 0. 0. 0. 0. 0. 0. 1.66666672e-01 0.
      0. 0. 0. 1.66666672e-01 0. 0. 0. 0. 0. 0. 0. 0. 0. 0. 0. 0. 0. 0.
      0. 0. 0.</_>
    <_>
      0. 0. 0. 0. 0. 0. 0. 0. 0. 0. 0. 0. 0. 0. 0. 0. 0. 0. 0. 0. 0.
      1.11111112e-01 0. 0. 0. 0. 0. 0. 0. 0. 0. 0. 0. 0. 0. 0. 0. 0. 0.
      0. 0. 0. 0. 0. 0. 1.11111112e-01 0. 0. 0. 0. 0. 0. 0. 0. 0. 0. 0.
      0. 0. 0. 0. 0. 0. 0. 1.11111112e-01 0. 0. 0. 0. 0. 0. 0. 0. 0. 0.
      0. 1.11111112e-01 1.11111112e-01 0. 0. 0. 0. 0. 0. 0.
      1.11111112e-01 1.11111112e-01 0. 0. 0. 0. 0. 0. 0. 0. 0. 0. 0. 0.
      0. 0. 0. 0. 0. 0. 0. 1.11111112e-01 0. 0. 0. 0. 0. 0. 0. 0. 0. 0.
      0. 1.11111112e-01 0. 0. 0. 0. 0. 0. 0. 0. 0.</_>
    <_>
      0. 0. 0. 0. 0. 0. 0. 0. 0. 1.42857149e-01 0. 0. 0. 0. 0. 0. 0. 0.
      0. 0. 0. 0. 0. 0. 0. 0. 0. 0. 0. 0. 0. 0. 0. 0. 0. 0. 0. 0. 0. 0.
      0. 0. 0. 0. 0. 0. 0. 0. 1.42857149e-01 0. 0. 0. 0. 0. 0. 0. 0. 0.
      0. 0. 0. 0. 0. 0. 0. 0. 0. 0. 0. 0. 0. 0. 1.42857149e-01 0. 0.
      1.42857149e-01 1.42857149e-01 0. 0. 0. 0. 0. 0. 0. 0. 0. 0. 0. 0.
      0. 0. 0. 0. 0. 0. 0. 0. 0. 0. 0. 0. 0. 0. 0. 0. 0. 0. 0.
      1.42857149e-01 0. 0. 0. 0. 0. 0. 0. 0. 0. 0. 0. 0. 0. 0. 0. 0. 0.
      0. 1.42857149e-01</_>
    <_>
      0. 0. 0. 0. 0. 0. 0. 0. 0. 0. 0. 0. 0. 0. 0. 0. 0. 0. 0. 0. 0. 0.
      0. 0. 0. 0. 0. 0. 0. 0. 0. 0. 0. 0. 0. 0. 0. 0. 0. 0. 0. 0. 0. 0.
      0. 0. 0. 0. 3.33333343e-01 0. 0. 0. 0. 0. 0. 0. 0. 0. 0. 0. 0. 0.
      0. 0. 0. 0. 0. 0. 0. 0. 0. 0. 0. 0. 0. 0. 0. 0. 0. 3.33333343e-01
      0. 0. 0. 0. 3.33333343e-01 0. 0. 0. 0. 0. 0. 0. 0. 0. 0. 0. 0. 0.
      0. 0. 0. 0. 0. 0. 0. 0. 0. 0. 0. 0. 0. 0. 0. 0. 0. 0. 0. 0. 0. 0.
      0. 0. 0. 0. 0. 0. 0. 0.</_>
    <_>
      0. 0. 0. 0. 0. 0. 0. 0. 0. 0. 0. 0. 0. 0. 0. 0. 0. 0. 0. 0. 0. 0.
      0. 0. 0. 0. 0. 0. 0. 0. 0. 0. 0. 0. 0. 0. 0. 0. 0. 0. 0. 0. 0. 0.
      0. 0. 0. 0. 0. 0. 0. 0. 0. 0. 0. 0. 0. 0. 0. 0. 0. 0. 0. 0. 0. 0.
      0. 0. 0. 0. 0. 0. 0. 0. 0. 0. 0. 0. 0. 0. 4.00000006e-01 0. 0.
      2.00000003e-01 0. 0. 0. 0. 0. 0. 0. 0. 0. 0. 0. 0. 0. 0. 0. 0. 0.
      0. 0. 0. 0. 2.00000003e-01 0. 0. 0. 0. 0. 0. 0. 0. 0. 0. 0. 0. 0.
      0. 2.00000003e-01 0. 0. 0. 0. 0. 0. 0.</_>
    <_>
      0. 0. 0. 0. 0. 0. 0. 0. 0. 0. 0. 0. 0. 0. 0. 0. 0. 9.09090936e-02
      0. 9.09090936e-02 0. 0. 0. 0. 0. 0. 0. 0. 0. 0. 0. 0. 0.
      9.09090936e-02 0. 0. 0. 0. 0. 9.09090936e-02 0. 0. 0.
      9.09090936e-02 0. 0. 0. 0. 9.09090936e-02 0. 0. 9.09090936e-02 0.
      0. 0. 0. 0. 0. 0. 0. 0. 0. 0. 0. 0. 0. 0. 0. 0. 0. 0. 0. 0. 0. 0.
      0. 0. 0. 0. 0. 0. 9.09090936e-02 0. 0. 0. 0. 0. 0. 0. 0. 0. 0. 0.
      0. 0. 0. 0. 0. 9.09090936e-02 0. 0. 0. 0. 0. 0. 0. 0. 0. 0. 0. 0.
      9.09090936e-02 0. 0. 0. 0. 9.09090936e-02 0. 0. 0. 0. 0. 0. 0. 0.
      0. 0. 0.</_>
    <_>
      0. 0. 0. 0. 0. 0. 0. 0. 0. 0. 0. 0. 0. 0. 0. 0. 0. 0. 0. 0. 0. 0.
      0. 0. 0. 0. 0. 0. 0. 0. 0. 0. 1.66666672e-01 0. 0. 1.66666672e-01
      0. 0. 0. 0. 0. 1.66666672e-01 0. 0. 0. 0. 0. 0. 0. 0. 0. 0.
      1.66666672e-01 0. 0. 0. 0. 0. 0. 0. 0. 0. 0. 0. 0. 0. 0. 0. 0.
      3.33333343e-01 0. 0. 0. 0. 0. 0. 0. 0. 0. 0. 0. 0. 0. 0. 0. 0. 0.
      0. 0. 0. 0. 0. 0. 0. 0. 0. 0. 0. 0. 0. 0. 0. 0. 0. 0. 0. 0. 0. 0.
      0. 0. 0. 0. 0. 0. 0. 0. 0. 0. 0. 0. 0. 0. 0. 0. 0. 0. 0.</_>
    <_>
      0. 0. 0. 0. 0. 0. 0. 0. 0. 0. 0. 0. 0. 0. 0. 0. 0. 1.42857149e-01
      0. 0. 0. 0. 0. 0. 0. 0. 0. 0. 0. 0. 0. 0. 0. 0. 0. 0. 0. 0. 0. 0.
      0. 0. 0. 0. 0. 0. 0. 0. 0. 0. 0. 0. 0. 0. 0. 0. 0. 0. 0. 0. 0. 0.
      0. 0. 0. 0. 0. 0. 0. 0. 0. 0. 0. 0. 1.42857149e-01 0.
      1.42857149e-01 0. 0. 0. 0. 0. 1.42857149e-01 0. 0. 0. 0. 0.
      2.85714298e-01 0. 0. 0. 0. 0. 0. 0. 0. 0. 0. 0. 0. 0. 0. 0. 0. 0.
      0. 0. 0. 0. 0. 0. 0. 0. 0. 0. 0. 0. 0. 0. 0. 0. 0. 0. 0. 0.
      1.42857149e-01 0.</_>
    <_>
      0. 0. 0. 5.55555560e-02 0. 0. 0. 0. 0. 0. 5.55555560e-02 0. 0. 0.
      0. 0. 5.55555560e-02 0. 0. 0. 0. 0. 0. 0. 0. 0. 0. 0. 0. 0.
      5.55555560e-02 0. 5.55555560e-02 0. 0. 0. 0. 0. 0. 0.
      5.55555560e-02 0. 0. 0. 0. 0. 0. 1.11111112e-01 0. 0. 0. 0. 0. 0.
      1.11111112e-01 0. 0. 0. 0. 0. 0. 0. 0. 0. 0. 0. 0. 0. 0. 0. 0. 0.
      0. 5.55555560e-02 0. 0. 0. 5.55555560e-02 0. 5.55555560e-02 0. 0.
      0. 0. 0. 0. 0. 0. 0. 0. 5.55555560e-02 0. 0. 0. 0. 0. 0. 0. 0. 0.
      0. 0. 0. 0. 0. 5.55555560e-02 0. 0. 0. 0. 0. 0. 0. 0. 0. 0. 0. 0.
      5.55555560e-02 0. 0. 0. 0. 5.55555560e-02 0. 5.55555560e-02 0. 0.</_>
    <_>
      0. 0. 0. 0. 0. 0. 0. 0. 0. 0. 0. 0. 0. 0. 0. 0. 0. 0. 0. 0. 0. 0.
      0. 0. 0. 0. 0. 0. 0. 0. 0. 0. 0. 0. 0. 0. 0. 0. 0. 0. 0. 0. 0. 0.
      0. 0. 0. 0. 0. 0. 0. 0. 0. 0. 0. 0. 0. 0. 0. 0. 0. 0. 0. 0. 0. 0.
      0. 0. 0. 0. 0. 0. 0. 0. 0. 0. 0. 0. 0. 0. 0. 0. 0. 0. 0. 0. 0. 0.
      0. 0. 2.00000003e-01 0. 0. 0. 0. 0. 0. 2.00000003e-01 0. 0. 0. 0.
      0. 0. 0. 0. 0. 0. 0. 0. 0. 0. 0. 0. 0. 0. 0. 0. 0. 0. 0. 0. 0. 0.
      2.00000003e-01 0. 4.00000006e-01 0.</_>
    <_>
      0. 0. 0. 0. 0. 0. 0. 0. 0. 0. 0. 0. 0. 0. 0. 0. 0. 0. 0.
      7.14285746e-02 0. 0. 0. 0. 0. 0. 0. 0. 0. 0. 0. 0. 0. 0. 0. 0. 0.
      7.14285746e-02 0. 0. 0. 0. 0. 0. 0. 0. 0. 0. 0. 0. 0. 0. 0. 0. 0.
      0. 0. 7.14285746e-02 0. 0. 0. 0. 0. 0. 0. 0. 0. 0. 0. 0. 0. 0.
      7.14285746e-02 0. 0. 0. 1.42857149e-01 0. 0. 7.14285746e-02 0. 0.
      0. 0. 0. 0. 0. 0. 0. 0. 0. 0. 0. 0. 7.14285746e-02 0. 0. 0. 0. 0.
      0. 0. 0. 0. 7.14285746e-02 0. 7.14285746e-02 0. 0. 0. 0. 0. 0. 0.
      7.14285746e-02 0. 0. 0. 7.14285746e-02 0. 0. 0. 0. 0. 0. 0.
      1.42857149e-01 0.</_>
    <_>
      0. 0. 0. 0. 0. 0. 0. 0. 0. 0. 0. 0. 0. 0. 0. 0. 0. 0. 0.
      1.25000000e-01 0. 0. 0. 0. 1.25000000e-01 0. 0. 0. 0. 0. 0.
      1.25000000e-01 0. 0. 0. 0. 0. 0. 0. 1.25000000e-01 0. 0. 0. 0. 0.
      0. 1.25000000e-01 0. 0. 0. 0. 0. 0. 0. 0. 0. 1.25000000e-01 0. 0.
      0. 0. 0. 0. 0. 0. 0. 0. 0. 0. 0. 0. 0. 0. 0. 0. 0. 0. 0. 0. 0. 0.
      0. 0. 0. 0. 0. 0. 0. 0. 0. 0. 0. 0. 0. 1.25000000e-01 0. 0. 0. 0.
      0. 1.25000000e-01 0. 0. 0. 0. 0. 0. 0. 0. 0. 0. 0. 0. 0. 0. 0. 0.
      0. 0. 0. 0. 0. 0. 0. 0. 0. 0. 0.</_>
    <_>
      0. 0. 0. 0. 0. 0. 0. 0. 0. 9.09090936e-02 0. 0. 0. 0. 0. 0. 0. 0.
      0. 9.09090936e-02 0. 0. 0. 0. 0. 0. 1.81818187e-01 0. 0. 0. 0. 0.
      9.09090936e-02 0. 0. 0. 0. 0. 0. 0. 0. 0. 0. 0. 0. 0. 0. 0. 0. 0.
      0. 0. 0. 9.09090936e-02 0. 0. 9.09090936e-02 0. 0. 0. 0. 0. 0. 0.
      0. 0. 0. 0. 0. 0. 0. 0. 0. 0. 0. 0. 0. 0. 0. 0. 0. 0.
      9.09090936e-02 9.09090936e-02 0. 0. 0. 0. 0. 0. 0. 0. 0. 0. 0. 0.
      0. 0. 0. 0. 0. 0. 0. 0. 0. 0. 0. 0. 0. 0. 0. 0. 0. 0. 0. 0. 0. 0.
      0. 0. 0. 0. 0. 0. 9.09090936e-02 0. 0. 9.09090936e-02</_>
    <_>
      1.81818187e-01 0. 0. 0. 0. 0. 0. 0. 0. 0. 0. 0. 0. 0. 0. 0. 0. 0.
      0. 0. 0. 0. 0. 0. 0. 0. 0. 0. 0. 0. 0. 0. 0. 0. 0. 0. 0. 0. 0. 0.
      1.81818187e-01 0. 0. 0. 0. 0. 0. 0. 0. 0. 0. 0. 9.09090936e-02 0.
      0. 0. 0. 0. 9.09090936e-02 0. 0. 0. 0. 0. 0. 0. 0. 0. 0. 0. 0. 0.
      0. 0. 0. 0. 0. 0. 0. 0. 0. 0. 0. 0. 0. 9.09090936e-02 0. 0. 0. 0.
      0. 0. 0. 0. 0. 0. 0. 0. 0. 9.09090936e-02 0. 0. 0. 0. 0. 0. 0. 0.
      0. 9.09090936e-02 0. 0. 0. 0. 0. 0. 0. 0. 0. 0. 0. 0. 0.
      9.09090936e-02 0. 9.09090936e-02 0. 0.</_>
    <_>
      0. 0. 7.69230798e-02 0. 0. 0. 0. 0. 0. 0. 0. 0. 0. 0. 0. 0. 0. 0.
      0. 0. 0. 0. 0. 0. 7.69230798e-02 0. 1.53846160e-01 0. 0. 0. 0. 0.
      0. 0. 0. 0. 0. 0. 0. 0. 0. 0. 0. 0. 0. 0. 0. 0. 0. 0. 0. 0. 0. 0.
      0. 0. 0. 0. 0. 0. 0. 0. 0. 0. 0. 0. 0. 0. 0. 0. 0. 0. 0. 0. 0. 0.
      0. 0. 0. 0. 0. 0. 0. 0. 0. 0. 0. 0. 7.69230798e-02 0. 0. 0. 0.
      1.53846160e-01 0. 0. 0. 0. 2.30769247e-01 0. 0. 0. 0. 0. 0. 0. 0.
      0. 0. 0. 1.53846160e-01 0. 0. 0. 0. 0. 0. 0. 0. 0. 0. 0. 0. 0. 0.
      0. 7.69230798e-02 0.</_>
    <_>
      0. 0. 0. 0. 0. 0. 0. 0. 0. 0. 0. 0. 0. 0. 0. 2.00000003e-01 0. 0.
      0. 0. 0. 0. 0. 0. 0. 0. 0. 0. 0. 0. 0. 0. 0. 0. 0. 0. 0. 0. 0. 0.
      0. 0. 0. 0. 0. 0. 0. 0. 0. 0. 0. 0. 0. 0. 0. 0. 0. 0. 0. 0. 0. 0.
      0. 0. 0. 0. 0. 0. 0. 0. 0. 0. 0. 0. 0. 0. 0. 0. 0. 0. 0. 0. 0. 0.
      0. 0. 2.00000003e-01 0. 0. 0. 0. 0. 2.00000003e-01 0.
      2.00000003e-01 0. 0. 0. 0. 0. 0. 0. 0. 0. 0. 0. 0. 0. 0. 0. 0. 0.
      0. 0. 0. 0. 0. 0. 0. 0. 0. 0. 0. 0. 0. 0. 2.00000003e-01 0.</_>
    <_>
      0. 0. 0. 0. 0. 6.25000000e-02 0. 6.25000000e-02 0. 0. 0. 0. 0. 0.
      6.25000000e-02 6.25000000e-02 0. 0. 0. 0. 0. 0. 0. 0. 0. 0. 0. 0.
      0. 0. 0. 0. 0. 0. 0. 0. 0. 0. 0. 0. 1.25000000e-01 0. 0. 0. 0. 0.
      0. 0. 0. 0. 6.25000000e-02 0. 0. 0. 0. 0. 0. 0. 0. 0. 0. 0. 0. 0.
      0. 0. 0. 0. 0. 0. 0. 6.25000000e-02 0. 0. 0. 0. 0. 0. 0. 0. 0. 0.
      6.25000000e-02 0. 0. 0. 0. 0. 0. 0. 0. 0. 0. 0. 0. 6.25000000e-02
      0. 0. 0. 0. 0. 0. 0. 0. 0. 6.25000000e-02 0. 0. 0. 0.
      1.25000000e-01 1.25000000e-01 0. 0. 0. 0. 0. 0. 0. 0. 0. 0.
      6.25000000e-02 0. 0. 0. 0. 0.</_>
    <_>
      0. 0. 0. 0. 0. 0. 0. 0. 0. 0. 0. 0. 0. 0. 0. 1.25000000e-01 0. 0.
      0. 0. 0. 0. 0. 0. 0. 0. 0. 0. 0. 0. 0. 0. 0. 0. 0. 0. 0. 0. 0. 0.
      0. 0. 0. 0. 0. 0. 0. 0. 0. 0. 0. 0. 0. 0. 0. 0. 0. 1.25000000e-01
      0. 0. 0. 0. 0. 0. 0. 0. 0. 0. 0. 0. 0. 0. 0. 0. 0. 0. 0. 0.
      1.25000000e-01 0. 0. 0. 2.50000000e-01 0. 0. 0. 0. 0.
      1.25000000e-01 1.25000000e-01 0. 0. 0. 0. 0. 0. 0. 0. 0. 0. 0. 0.
      0. 0. 0. 0. 0. 0. 0. 0. 1.25000000e-01 0. 0. 0. 0. 0. 0. 0. 0. 0.
      0. 0. 0. 0. 0. 0. 0. 0.</_>
    <_>
      0. 0. 7.69230798e-02 0. 0. 0. 0. 0. 0. 0. 0. 0. 0. 0. 0.
      3.84615399e-02 0. 0. 0. 0. 0. 0. 0. 0. 0. 0. 0. 0. 0. 0. 0. 0. 0.
      3.84615399e-02 0. 0. 3.84615399e-02 0. 7.69230798e-02 0. 0. 0. 0.
      0. 0. 0. 0. 0. 0. 0. 3.84615399e-02 7.69230798e-02 3.84615399e-02
      0. 0. 0. 0. 0. 3.84615399e-02 0. 0. 0. 0. 0. 0. 0. 0. 0.
      3.84615399e-02 0. 0. 7.69230798e-02 0. 0. 0. 0. 0. 0. 0. 0. 0. 0.
      0. 0. 0. 0. 0. 0. 3.84615399e-02 0. 7.69230798e-02 0. 0. 0.
      3.84615399e-02 0. 0. 0. 0. 0. 0. 0. 0. 0. 0. 7.69230798e-02 0. 0.
      0. 0. 0. 0. 0. 0. 0. 0. 0. 3.84615399e-02 3.84615399e-02
      3.84615399e-02 0. 0. 3.84615399e-02 0. 0. 0. 0. 3.84615399e-02</_>
    <_>
      0. 0. 0. 0. 0. 0. 0. 0. 0. 0. 0. 0. 0. 0. 0. 0. 0. 0. 0.
      2.00000003e-01 0. 0. 0. 0. 0. 0. 0. 0. 0. 0. 0. 2.00000003e-01 0.
      0. 0. 0. 0. 0. 0. 2.00000003e-01 0. 0. 0. 0. 0. 0. 0. 0. 0. 0. 0.
      0. 0. 0. 0. 0. 0. 0. 0. 0. 0. 0. 0. 0. 0. 0. 0. 0. 0. 0. 0. 0. 0.
      0. 0. 0. 0. 0. 0. 0. 0. 0. 0. 0. 0. 0. 0. 2.00000003e-01 0. 0. 0.
      0. 0. 0. 0. 0. 0. 0. 0. 0. 0. 0. 0. 0. 0. 0. 0. 0. 0. 0. 0. 0. 0.
      0. 0. 0. 0. 0. 0. 0. 0. 0. 0. 0. 2.00000003e-01 0. 0. 0.</_>
    <_>
      0. 0. 0. 0. 0. 0. 0. 0. 0. 0. 0. 0. 0. 0. 0. 0. 0. 0. 0. 0. 0. 0.
      0. 0. 0. 0. 0. 0. 0. 0. 0. 0. 0. 0. 0. 0. 0. 0. 0. 1.25000000e-01
      0. 0. 0. 0. 0. 0. 0. 0. 0. 0. 0. 0. 0. 0. 0. 0. 0. 0. 0. 0. 0.
      2.50000000e-01 0. 0. 0. 0. 2.50000000e-01 0. 0. 0. 0. 0.
      1.25000000e-01 0. 0. 0. 0. 1.25000000e-01 0. 0. 0. 0. 0. 0. 0. 0.
      0. 0. 0. 0. 0. 0. 0. 0. 0. 0. 0. 0. 0. 0. 0. 0. 0. 0. 0. 0. 0. 0.
      0. 0. 0. 0. 0. 0. 0. 0. 0. 0. 0. 0. 0. 0. 1.25000000e-01 0. 0. 0.
      0. 0.</_>
    <_>
      6.66666701e-02 0. 0. 0. 0. 0. 0. 0. 0. 0. 0. 0. 6.66666701e-02 0.
      0. 0. 0. 0. 0. 0. 0. 0. 0. 0. 0. 0. 0. 0. 0. 0. 0. 0. 0. 0. 0. 0.
      0. 0. 0. 0. 0. 0. 0. 0. 0. 6.66666701e-02 0. 0. 0. 0. 0. 0. 0. 0.
      0. 0. 0. 0. 0. 0. 0. 0. 0. 0. 0. 0. 0. 0. 0. 0. 0. 6.66666701e-02
      0. 0. 0. 1.33333340e-01 0. 0. 0. 0. 0. 0. 0. 6.66666701e-02 0. 0.
      2.00000018e-01 0. 0. 0. 0. 0. 0. 0. 0. 0. 0. 0. 0. 0. 0. 0. 0. 0.
      0. 0. 0. 6.66666701e-02 0. 0. 0. 0. 0. 0. 0. 0. 0. 0.
      1.33333340e-01 0. 0. 6.66666701e-02 6.66666701e-02 0. 0. 0. 0. 0.</_>
    <_>
      0. 0. 0. 0. 0. 0. 0. 0. 0. 0. 0. 0. 0. 0. 0. 0. 0. 8.33333358e-02
      0. 0. 0. 0. 0. 0. 8.33333358e-02 0. 0. 0. 0. 0. 0. 0. 0. 0. 0. 0.
      0. 0. 0. 0. 0. 0. 0. 0. 0. 0. 0. 0. 0. 0. 0. 8.33333358e-02 0.
      8.33333358e-02 8.33333358e-02 0. 0. 0. 0. 0. 0. 0. 0. 0. 0. 0. 0.
      0. 0. 0. 0. 8.33333358e-02 0. 0. 0. 0. 8.33333358e-02 0. 0.
      8.33333358e-02 0. 0. 0. 0. 0. 0. 0. 0. 0. 0. 0. 0. 0. 0. 0. 0. 0.
      0. 0. 0. 0. 8.33333358e-02 0. 0. 0. 8.33333358e-02 8.33333358e-02
      0. 0. 8.33333358e-02 0. 0. 0. 0. 0. 0. 0. 0. 0. 0. 0. 0. 0. 0. 0.
      0. 0. 0.</_>
    <_>
      0. 0. 0. 0. 0. 0. 0. 0. 0. 0. 0. 0. 0. 0. 0. 0. 0. 0. 0. 0. 0. 0.
      0. 0. 0. 0. 0. 0. 0. 0. 0. 0. 0. 0. 0. 0. 0. 0. 0. 0. 0. 0. 0. 0.
      0. 0. 0. 0. 0. 0. 0. 0. 0. 0. 0. 0. 1.25000000e-01 0. 0. 0. 0. 0.
      0. 0. 1.25000000e-01 1.25000000e-01 1.25000000e-01 0. 0. 0. 0. 0.
      0. 0. 1.25000000e-01 0. 0. 1.25000000e-01 0. 0. 0. 0. 0. 0. 0. 0.
      0. 0. 0. 0. 0. 0. 0. 0. 0. 0. 0. 0. 0. 1.25000000e-01 0. 0. 0. 0.
      0. 0. 0. 0. 0. 1.25000000e-01 0. 0. 0. 0. 0. 0. 0. 0. 0. 0. 0. 0.
      0. 0. 0. 0. 0. 0.</_>
    <_>
      0. 0. 0. 0. 0. 0. 0. 0. 0. 0. 0. 0. 0. 0. 0. 0. 0. 0. 0. 0. 0. 0.
      7.14285746e-02 0. 0. 0. 0. 0. 0. 0. 0. 0. 0. 0. 0. 0. 0. 0. 0. 0.
      0. 0. 0. 7.14285746e-02 0. 0. 7.14285746e-02 0. 0. 0. 0. 0. 0. 0.
      0. 0. 7.14285746e-02 0. 0. 0. 0. 0. 0. 0. 0. 0. 0. 0. 0. 0. 0. 0.
      7.14285746e-02 0. 0. 0. 0. 0. 0. 0. 0. 0. 7.14285746e-02 0.
      1.42857149e-01 0. 0. 7.14285746e-02 0. 0. 0. 0. 0. 0. 0. 0. 0. 0.
      0. 7.14285746e-02 0. 0. 0. 0. 0. 0. 0. 7.14285746e-02 0.
      1.42857149e-01 0. 0. 0. 0. 0. 0. 0. 0. 0. 0. 0. 7.14285746e-02 0.
      0. 0. 0. 0. 0.</_>
    <_>
      0. 0. 0. 0. 0. 0. 0. 0. 0. 0. 0. 0. 0. 0. 0. 0. 0. 0. 0. 0. 0. 0.
      0. 0. 0. 0. 0. 0. 0. 0. 0. 0. 0. 0. 0. 0. 0. 0. 0. 0.
      5.88235296e-02 5.88235296e-02 0. 0. 0. 0. 5.88235296e-02 0. 0. 0.
      0. 5.88235296e-02 0. 0. 0. 0. 5.88235296e-02 0. 1.17647059e-01 0.
      0. 0. 0. 0. 0. 5.88235296e-02 0. 0. 0. 0. 0. 5.88235296e-02 0. 0.
      0. 1.17647059e-01 0. 0. 0. 0. 0. 0. 0. 0. 0. 0. 0. 0. 0. 0. 0.
      5.88235296e-02 0. 0. 0. 0. 0. 0. 0. 0. 5.88235296e-02 0. 0. 0. 0.
      0. 0. 0. 5.88235296e-02 0. 0. 5.88235296e-02 0. 0. 0. 0. 0.
      5.88235296e-02 0. 5.88235296e-02 0. 0. 0. 0. 0. 0. 0. 0.</_>
    <_>
      7.69230798e-02 0. 7.69230798e-02 0. 0. 0. 0. 0. 0. 0. 0. 0.
      7.69230798e-02 0. 0. 0. 0. 0. 0. 0. 0. 0. 0. 0. 1.53846160e-01 0.
      0. 0. 0. 0. 0. 0. 0. 0. 0. 0. 0. 0. 0. 0. 0. 0. 0. 0. 0. 0. 0. 0.
      0. 0. 0. 0. 0. 0. 0. 0. 7.69230798e-02 0. 0. 0. 0. 0. 0. 0. 0. 0.
      0. 0. 0. 0. 0. 0. 0. 0. 0. 0. 0. 0. 0. 0. 7.69230798e-02 0. 0. 0.
      0. 0. 7.69230798e-02 7.69230798e-02 0. 0. 1.53846160e-01 0. 0. 0.
      0. 0. 0. 0. 0. 7.69230798e-02 0. 0. 0. 0. 7.69230798e-02 0. 0. 0.
      0. 0. 0. 0. 0. 0. 0. 0. 0. 0. 0. 0. 0. 0. 0. 0. 0. 0. 0. 0.</_>
    <_>
      0. 0. 0. 0. 0. 0. 0. 0. 1.42857149e-01 0. 0. 0. 0. 0.
      1.42857149e-01 0. 0. 0. 0. 7.14285746e-02 0. 0. 0. 0. 0. 0. 0. 0.
      0. 0. 7.14285746e-02 0. 0. 0. 0. 0. 0. 7.14285746e-02 0. 0. 0. 0.
      0. 0. 0. 0. 0. 0. 0. 0. 7.14285746e-02 7.14285746e-02 0. 0. 0. 0.
      0. 0. 0. 0. 0. 0. 0. 0. 0. 0. 0. 0. 0. 0. 0. 0. 7.14285746e-02 0.
      0. 0. 0. 0. 0. 0. 0. 0. 0. 0. 0. 0. 0. 0. 0. 0. 0. 0. 0. 0. 0.
      7.14285746e-02 0. 0. 0. 0. 0. 0. 0. 0. 0. 0. 0. 7.14285746e-02 0.
      0. 0. 0. 0. 0. 0. 0. 0. 0. 7.14285746e-02 0. 0. 7.14285746e-02 0.
      0. 0. 0. 0. 0.</_>
    <_>
      0. 0. 0. 0. 0. 0. 0. 0. 0. 0. 0. 0. 0. 0. 0. 0. 0. 6.25000000e-02
      0. 0. 0. 0. 0. 0. 0. 0. 0. 0. 0. 0. 0. 0. 0. 0. 0. 0. 0. 0. 0. 0.
      0. 6.25000000e-02 0. 0. 6.25000000e-02 0. 0. 6.25000000e-02
      6.25000000e-02 0. 0. 0. 6.25000000e-02 0. 6.25000000e-02 0. 0. 0.
      6.25000000e-02 0. 0. 0. 0. 0. 6.25000000e-02 0. 0. 0. 0. 0. 0. 0.
      0. 0. 0. 1.25000000e-01 0. 0. 0. 0. 0. 0. 0. 0. 0. 0.
      6.25000000e-02 0. 6.25000000e-02 0. 0. 0. 0. 0. 6.25000000e-02 0.
      0. 0. 0. 0. 0. 0. 0. 0. 6.25000000e-02 0. 0. 0. 0. 0. 0. 0. 0. 0.
      0. 0. 6.25000000e-02 0. 0. 0. 0. 0. 0. 0. 0. 0. 0. 0.</_>
    <_>
      0. 0. 0. 0. 0. 0. 0. 0. 0. 0. 0. 0. 1.00000001e-01 0. 0. 0. 0. 0.
      0. 0. 0. 0. 1.00000001e-01 0. 0. 0. 0. 0. 0. 0. 0. 0. 0. 0. 0. 0.
      0. 0. 0. 0. 0. 0. 0. 0. 0. 0. 0. 0. 0. 0. 0. 0. 0. 0. 0. 0. 0. 0.
      0. 0. 0. 0. 0. 0. 0. 1.00000001e-01 0. 1.00000001e-01
      1.00000001e-01 0. 0. 0. 0. 0. 0. 0. 0. 0. 0. 0. 0. 0. 0. 0. 0. 0.
      0. 0. 0. 0. 0. 1.00000001e-01 0. 0. 0. 0. 1.00000001e-01 0. 0. 0.
      0. 0. 0. 0. 0. 1.00000001e-01 0. 1.00000001e-01 0. 0. 0.
      1.00000001e-01 0. 0. 0. 0. 0. 0. 0. 0. 0. 0. 0. 0. 0. 0. 0. 0.</_>
    <_>
      0. 0. 0. 0. 0. 0. 0. 0. 0. 0. 0. 0. 0. 0. 0. 0. 6.66666701e-02 0.
      0. 1.33333340e-01 0. 0. 0. 0. 0. 0. 0. 0. 0. 0. 0. 0. 0. 0. 0. 0.
      6.66666701e-02 0. 0. 0. 0. 0. 0. 0. 0. 0. 0. 0. 0. 0. 0. 0. 0. 0.
      0. 0. 0. 0. 6.66666701e-02 0. 0. 0. 0. 0. 0. 0. 0. 0. 0. 0. 0. 0.
      0. 0. 0. 0. 1.33333340e-01 0. 0. 0. 6.66666701e-02 0. 0. 0. 0. 0.
      0. 6.66666701e-02 0. 0. 0. 6.66666701e-02 0. 0. 0. 6.66666701e-02
      0. 0. 0. 0. 0. 0. 6.66666701e-02 0. 0. 0. 0. 0. 6.66666701e-02 0.
      0. 6.66666701e-02 0. 0. 0. 0. 0. 0. 0. 0. 0. 0. 0. 0.
      6.66666701e-02 0. 0. 0.</_>
    <_>
      0. 0. 0. 0. 0. 0. 0. 0. 0. 0. 0. 0. 0. 0. 0. 0. 0. 0. 0. 0. 0. 0.
      0. 0. 0. 0. 0. 0. 0. 0. 0. 1.42857149e-01 0. 0. 0. 0. 0. 0. 0. 0.
      0. 0. 0. 0. 0. 0. 0. 0. 0. 0. 0. 0. 0. 0. 0. 0. 0. 0. 0. 0. 0.
      2.85714298e-01 0. 0. 0. 0. 0. 0. 0. 0. 0. 0. 0. 0. 1.42857149e-01
      0. 0. 0. 0. 0. 0. 0. 0. 0. 0. 0. 0. 2.85714298e-01 0. 0. 0. 0. 0.
      0. 0. 0. 0. 0. 0. 0. 0. 0. 0. 0. 0. 0. 0. 0. 0. 1.42857149e-01 0.
      0. 0. 0. 0. 0. 0. 0. 0. 0. 0. 0. 0. 0. 0. 0. 0. 0.</_>
    <_>
      0. 0. 0. 0. 0. 0. 0. 0. 0. 0. 0. 0. 0. 0. 0. 0. 0. 0. 0. 0. 0. 0.
      0. 0. 0. 0. 9.09090936e-02 0. 0. 0. 0. 0. 0. 0. 0. 0. 0. 0. 0. 0.
      0. 0. 0. 0. 0. 0. 9.09090936e-02 9.09090936e-02 0. 0. 0. 0. 0. 0.
      0. 0. 0. 0. 0. 0. 0. 0. 0. 0. 9.09090936e-02 0. 1.81818187e-01 0.
      0. 0. 0. 0. 0. 0. 0. 9.09090936e-02 0. 0. 0. 0. 0. 0. 0. 0. 0. 0.
      0. 0. 0. 9.09090936e-02 0. 0. 9.09090936e-02 0. 0. 0. 0. 0. 0. 0.
      0. 0. 0. 0. 0. 9.09090936e-02 0. 0. 0. 0. 0. 0. 9.09090936e-02 0.
      0. 0. 0. 0. 0. 0. 0. 0. 0. 0. 0. 0. 0. 0.</_>
    <_>
      6.66666701e-02 0. 6.66666701e-02 0. 0. 6.66666701e-02 0. 0. 0. 0.
      0. 0. 0. 0. 0. 0. 0. 6.66666701e-02 0. 0. 0. 0. 0. 0.
      6.66666701e-02 0. 0. 0. 0. 0. 0. 0. 0. 0. 0. 0. 6.66666701e-02 0.
      0. 0. 0. 0. 0. 0. 0. 0. 0. 0. 0. 0. 0. 0. 0. 0. 6.66666701e-02 0.
      1.33333340e-01 0. 6.66666701e-02 6.66666701e-02 0. 0. 0. 0. 0. 0.
      0. 0. 0. 0. 0. 0. 0. 0. 0. 6.66666701e-02 0. 0. 6.66666701e-02 0.
      0. 0. 0. 0. 0. 0. 0. 0. 0. 0. 0. 0. 6.66666701e-02 0. 0. 0. 0. 0.
      0. 0. 0. 0. 0. 0. 0. 0. 0. 0. 0. 0. 0. 0. 0. 0. 0. 0. 0. 0. 0. 0.
      0. 0. 0. 0. 0. 0. 0. 6.66666701e-02</_>
    <_>
      0. 0. 0. 0. 0. 0. 0. 0. 0. 0. 0. 0. 0. 0. 0. 0. 0. 1.11111112e-01
      0. 0. 0. 0. 0. 0. 0. 0. 0. 0. 0. 0. 0. 0. 0. 0. 0. 0. 0. 0. 0.
      1.11111112e-01 0. 0. 0. 0. 0. 0. 0. 1.11111112e-01 0. 0. 0. 0. 0.
      0. 0. 0. 0. 0. 0. 0. 0. 0. 0. 0. 0. 0. 0. 0. 0. 0. 0. 0. 0. 0.
      1.11111112e-01 1.11111112e-01 0. 1.11111112e-01 0. 0. 0. 0. 0. 0.
      0. 0. 1.11111112e-01 0. 0. 0. 0. 0. 0. 0. 1.11111112e-01 0. 0. 0.
      0. 0. 0. 0. 0. 0. 0. 0. 0. 0. 0. 0. 0. 0. 0. 0. 0. 0. 0. 0. 0. 0.
      0. 0. 0. 0. 1.11111112e-01 0. 0. 0.</_>
    <_>
      0. 0. 0. 0. 0. 0. 0. 0. 0. 0. 0. 0. 0. 0. 0. 0. 0. 1.00000001e-01
      0. 1.00000001e-01 0. 0. 1.00000001e-01 0. 0. 0. 0. 0. 0. 0. 0. 0.
      0. 0. 0. 0. 0. 0. 0. 0. 0. 0. 0. 0. 0. 1.00000001e-01 0. 0. 0. 0.
      0. 0. 0. 0. 1.00000001e-01 0. 0. 0. 0. 0. 0. 0. 0. 0. 0. 0.
      2.00000003e-01 0. 0. 0. 0. 0. 0. 0. 0. 0. 0. 0. 1.00000001e-01 0.
      0. 0. 0. 0. 0. 0. 1.00000001e-01 0. 0. 0. 0. 0. 0. 0. 0. 0. 0. 0.
      0. 0. 0. 0. 0. 0. 0. 0. 1.00000001e-01 0. 0. 0. 0. 0. 0. 0. 0. 0.
      0. 0. 0. 0. 0. 0. 0. 0. 0. 0. 0. 0.</_>
    <_>
      0. 0. 0. 0. 0. 0. 0. 0. 0. 0. 0. 0. 0. 0. 0. 0. 0. 0. 0. 0. 0. 0.
      0. 0. 0. 0. 0. 0. 0. 0. 0. 0. 0. 0. 0. 0. 0. 0. 0. 0. 0. 0. 0. 0.
      0. 0. 0. 0. 1.42857149e-01 0. 0. 0. 0. 0. 0. 0. 0. 0. 0. 0. 0. 0.
      0. 1.42857149e-01 0. 1.42857149e-01 0. 0. 0. 0. 0. 0. 0. 0. 0. 0.
      0. 0. 0. 0. 0. 1.42857149e-01 0. 0. 0. 0. 0. 0. 0. 0. 0. 0. 0. 0.
      0. 0. 1.42857149e-01 0. 0. 1.42857149e-01 0. 0. 0. 0. 0. 0. 0. 0.
      0. 0. 0. 0. 0. 0. 0. 0. 0. 0. 0. 0. 1.42857149e-01 0. 0. 0. 0. 0.
      0. 0.</_>
    <_>
      0. 0. 0. 0. 0. 8.33333358e-02 0. 0. 8.33333358e-02 0. 0. 0. 0. 0.
      0. 0. 8.33333358e-02 0. 0. 0. 0. 0. 0. 0. 0. 0. 0. 0. 0. 0. 0. 0.
      0. 1.66666672e-01 0. 0. 0. 8.33333358e-02 0. 0. 0. 0. 0. 0. 0. 0.
      8.33333358e-02 0. 0. 0. 0. 0. 0. 0. 0. 0. 0. 0. 8.33333358e-02 0.
      0. 0. 0. 0. 0. 0. 0. 0. 0. 0. 0. 0. 0. 0. 0. 0. 8.33333358e-02 0.
      0. 0. 0. 0. 0. 0. 0. 0. 0. 0. 0. 8.33333358e-02 0. 0. 0.
      8.33333358e-02 0. 0. 0. 0. 0. 0. 0. 0. 0. 0. 0. 0. 0. 0. 0. 0. 0.
      0. 0. 0. 0. 0. 0. 0. 0. 8.33333358e-02 0. 0. 0. 0. 0. 0. 0. 0.</_>
    <_>
      0. 0. 0. 0. 0. 0. 0. 1.25000000e-01 0. 0. 0. 0. 0. 0. 0. 0.
      1.25000000e-01 0. 0. 0. 0. 0. 0. 0. 0. 0. 0. 0. 0. 0. 0. 0. 0. 0.
      0. 0. 0. 0. 0. 0. 0. 0. 0. 0. 0. 1.25000000e-01 0. 0. 0. 0. 0.
      1.25000000e-01 0. 0. 0. 0. 0. 0. 0. 0. 0. 0. 0. 0. 0. 0. 0. 0.
      1.25000000e-01 0. 0. 0. 0. 0. 0. 0. 0. 0. 0. 0. 0. 0. 0. 0. 0. 0.
      0. 0. 0. 0. 0. 0. 0. 0. 0. 0. 0. 0. 0. 0. 0. 0. 0. 0. 0. 0. 0. 0.
      2.50000000e-01 0. 0. 0. 0. 0. 0. 0. 0. 0. 1.25000000e-01 0. 0. 0.
      0. 0. 0. 0. 0. 0.</_>
    <_>
      0. 0. 0. 0. 0. 0. 0. 0. 0. 0. 0. 0. 0. 0. 0. 0. 0. 0. 0. 0. 0. 0.
      0. 0. 0. 0. 0. 0. 0. 0. 0. 2.00000003e-01 0. 0. 0. 0. 0. 0. 0. 0.
      0. 0. 0. 0. 0. 0. 0. 0. 0. 0. 0. 0. 0. 0. 0. 0. 0. 0. 0. 0. 0. 0.
      0. 0. 0. 0. 4.00000006e-01 0. 0. 0. 0. 0. 0. 0. 0. 0. 0. 0. 0. 0.
      0. 0. 0. 0. 0. 0. 0. 0. 0. 2.00000003e-01 0. 0. 0. 0. 0. 0. 0. 0.
      0. 0. 0. 0. 0. 0. 0. 0. 0. 0. 0. 0. 0. 0. 0. 0. 0. 0. 0.
      2.00000003e-01 0. 0. 0. 0. 0. 0. 0. 0. 0. 0.</_>
    <_>
      0. 0. 0. 0. 0. 0. 0. 0. 0. 0. 0. 0. 0. 0. 0. 0. 0. 0. 0. 0. 0. 0.
      0. 0. 1.11111112e-01 0. 0. 0. 0. 0. 0. 0. 0. 0. 0. 0. 0. 0.
      1.11111112e-01 0. 0. 0. 0. 0. 0. 0. 0. 0. 0. 0. 0. 0. 0. 0. 0. 0.
      2.22222224e-01 0. 0. 0. 0. 2.22222224e-01 0. 0. 0. 0. 0. 0. 0. 0.
      0. 0. 0. 0. 0. 0. 0. 0. 0. 0. 0. 0. 0. 0. 0. 0. 0. 0. 0. 0. 0. 0.
      0. 0. 0. 0. 0. 1.11111112e-01 0. 2.22222224e-01 0. 0. 0. 0. 0. 0.
      0. 0. 0. 0. 0. 0. 0. 0. 0. 0. 0. 0. 0. 0. 0. 0. 0. 0. 0. 0. 0. 0.</_>
    <_>
      0. 0. 0. 0. 0. 0. 0. 0. 0. 0. 0. 0. 0. 0. 0. 0. 0. 0. 0. 0. 0. 0.
      0. 0. 0. 0. 0. 0. 0. 0. 0. 0. 0. 0. 0. 0. 0. 0. 0. 1.25000000e-01
      0. 0. 0. 0. 0. 0. 0. 0. 1.25000000e-01 0. 0. 0. 0. 0. 0. 0.
      3.75000000e-01 0. 0. 0. 0. 0. 0. 0. 0. 0. 0. 0. 0. 0. 0. 0. 0. 0.
      0. 1.25000000e-01 0. 0. 0. 0. 0. 0. 0. 0. 1.25000000e-01 0. 0. 0.
      0. 0. 0. 0. 0. 0. 0. 0. 0. 0. 1.25000000e-01 0. 0. 0. 0. 0. 0. 0.
      0. 0. 0. 0. 0. 0. 0. 0. 0. 0. 0. 0. 0. 0. 0. 0. 0. 0. 0. 0. 0. 0.</_>
    <_>
      0. 0. 0. 0. 0. 0. 0. 0. 0. 0. 0. 0. 0. 0. 0. 6.25000000e-02
      6.25000000e-02 0. 0. 0. 0. 0. 6.25000000e-02 0. 0. 0. 0. 0. 0. 0.
      0. 0. 0. 0. 0. 0. 0. 0. 0. 0. 0. 0. 0. 0. 0. 0. 0. 0. 0. 0. 0. 0.
      0. 0. 0. 0. 0. 0. 0. 1.25000000e-01 0. 0. 0. 0. 0. 0. 0.
      6.25000000e-02 0. 0. 0. 0. 0. 0. 0. 0. 0. 6.25000000e-02 0. 0. 0.
      0. 0. 0. 0. 0. 6.25000000e-02 0. 6.25000000e-02 0. 0. 0. 0. 0.
      2.50000000e-01 0. 0. 0. 0. 0. 0. 0. 0. 0. 0. 0. 0. 0. 0. 0. 0. 0.
      0. 0. 0. 0. 0. 6.25000000e-02 0. 0. 0. 0. 0. 0. 0. 0.
      1.25000000e-01 0.</_>
    <_>
      1.33333340e-01 0. 0. 0. 0. 0. 0. 0. 0. 0. 0. 0. 0. 0. 0. 0. 0. 0.
      0. 0. 0. 0. 0. 0. 0. 0. 0. 0. 0. 0. 6.66666701e-02 0. 0.
      6.66666701e-02 0. 0. 0. 0. 6.66666701e-02 0. 0. 0. 0. 0. 0. 0. 0.
      6.66666701e-02 0. 0. 0. 0. 6.66666701e-02 0. 0. 0. 0. 0. 0. 0. 0.
      0. 0. 0. 0. 0. 0. 0. 0. 0. 0. 0. 0. 0. 0. 0. 0. 0. 0. 0. 0. 0. 0.
      0. 0. 0. 0. 0. 0. 0. 0. 6.66666701e-02 0. 0. 0. 0. 0.
      6.66666701e-02 6.66666701e-02 0. 0. 0. 0. 0. 6.66666701e-02 0. 0.
      0. 0. 6.66666701e-02 0. 0. 0. 0. 0. 0. 0. 0. 6.66666701e-02 0. 0.
      0. 0. 0. 0. 6.66666701e-02 6.66666701e-02 0.</_>
    <_>
      0. 0. 0. 0. 0. 0. 0. 0. 0. 0. 0. 0. 0. 0. 0. 0. 0. 0. 0. 0. 0. 0.
      0. 0. 0. 0. 0. 0. 0. 0. 0. 0. 0. 0. 0. 0. 0. 0. 0. 0. 0. 0. 0. 0.
      0. 0. 0. 0. 0. 0. 0. 1.25000000e-01 0. 0. 0. 0. 0. 0. 0. 0. 0. 0.
      0. 0. 0. 0. 0. 0. 1.25000000e-01 0. 0. 0. 0. 1.25000000e-01 0. 0.
      0. 0. 0. 0. 0. 1.25000000e-01 0. 1.25000000e-01 0. 0. 0. 0. 0. 0.
      0. 0. 0. 0. 0. 0. 0. 0. 0. 0. 0. 0. 1.25000000e-01 0. 0. 0. 0. 0.
      0. 1.25000000e-01 0. 0. 0. 0. 0. 0. 0. 0. 0. 1.25000000e-01 0. 0.
      0. 0. 0. 0. 0. 0.</_>
    <_>
      7.14285746e-02 0. 0. 0. 0. 0. 0. 0. 0. 0. 0. 0. 0. 0. 0.
      7.14285746e-02 0. 0. 0. 0. 0. 0. 0. 0. 1.42857149e-01 0. 0.
      7.14285746e-02 0. 0. 0. 0. 0. 0. 0. 0. 0. 0. 0. 0. 0. 0. 0. 0. 0.
      0. 0. 0. 0. 0. 0. 0. 0. 0. 0. 0. 0. 0. 0. 0. 0. 1.42857149e-01 0.
      0. 1.42857149e-01 1.42857149e-01 0. 0. 0. 0. 0. 0. 0. 0. 0. 0. 0.
      0. 0. 0. 0. 0. 0. 0. 0. 0. 0. 0. 0. 0. 0. 7.14285746e-02 0. 0. 0.
      0. 0. 0. 0. 7.14285746e-02 0. 0. 0. 0. 0. 0. 0. 0. 0.
      7.14285746e-02 0. 0. 0. 0. 0. 0. 0. 0. 0. 0. 0. 0. 0. 0. 0. 0. 0.
      0.</_>
    <_>
      0. 0. 0. 0. 0. 0. 0. 0. 0. 0. 0. 0. 0. 0. 0. 0. 0. 0. 0. 0. 0. 0.
      0. 0. 0. 0. 0. 0. 0. 0. 0. 0. 0. 0. 0. 0. 0. 0. 0. 0. 0. 0. 0. 0.
      0. 0. 0. 0. 0. 0. 0. 0. 0. 0. 0. 0. 0. 0. 0. 0. 0. 0. 0. 0. 0. 0.
      0. 0. 0. 0. 0. 0. 0. 0. 0. 0. 0. 0. 0. 3.33333343e-01 0. 0. 0.
      3.33333343e-01 3.33333343e-01 0. 0. 0. 0. 0. 0. 0. 0. 0. 0. 0. 0.
      0. 0. 0. 0. 0. 0. 0. 0. 0. 0. 0. 0. 0. 0. 0. 0. 0. 0. 0. 0. 0. 0.
      0. 0. 0. 0. 0. 0. 0. 0. 0.</_>
    <_>
      0. 0. 0. 0. 0. 0. 0. 0. 0. 0. 0. 0. 0. 0. 0. 0. 0. 0. 0.
      1.11111112e-01 0. 0. 0. 0. 0. 0. 2.22222224e-01 0. 0. 0. 0. 0. 0.
      0. 0. 0. 0. 0. 0. 0. 0. 0. 0. 0. 0. 0. 0. 0. 0. 0. 0. 0. 0. 0. 0.
      0. 0. 0. 0. 0. 0. 0. 0. 0. 0. 0. 1.11111112e-01 0. 0. 0. 0. 0. 0.
      0. 0. 0. 0. 0. 0. 0. 0. 0. 2.22222224e-01 0. 0. 0. 0.
      1.11111112e-01 0. 0. 0. 2.22222224e-01 0. 0. 0. 0. 0. 0. 0. 0. 0.
      0. 0. 0. 0. 0. 0. 0. 0. 0. 0. 0. 0. 0. 0. 0. 0. 0. 0. 0. 0. 0. 0.
      0. 0. 0. 0. 0.</_>
    <_>
      0. 0. 0. 0. 0. 0. 0. 0. 0. 0. 0. 0. 0. 0. 0. 0. 0. 0. 0. 0. 0. 0.
      0. 0. 0. 0. 0. 0. 0. 0. 0. 0. 0. 0. 1.11111112e-01 0. 0. 0. 0. 0.
      0. 0. 0. 0. 0. 0. 0. 0. 0. 0. 0. 0. 0. 0. 0. 0. 1.11111112e-01 0.
      0. 0. 0. 0. 0. 0. 0. 0. 0. 0. 0. 0. 0. 0. 0. 0. 2.22222224e-01 0.
      0. 0. 1.11111112e-01 0. 0. 0. 0. 0. 0. 0. 0. 0. 0. 0.
      1.11111112e-01 0. 0. 0. 0. 0. 0. 0. 0. 1.11111112e-01
      1.11111112e-01 0. 0. 0. 0. 0. 0. 1.11111112e-01 0. 0. 0. 0. 0. 0.
      0. 0. 0. 0. 0. 0. 0. 0. 0. 0. 0. 0. 0. 0.</_>
    <_>
      0. 0. 1.00000001e-01 0. 0. 1.00000001e-01 0. 0. 0. 0. 0. 0.
      1.00000001e-01 0. 1.00000001e-01 0. 0. 0. 0. 0. 0. 0. 0. 0. 0. 0.
      0. 0. 0. 0. 0. 0. 0. 0. 0. 0. 0. 0. 0. 0. 0. 0. 0. 0. 0. 0. 0. 0.
      0. 0. 0. 0. 0. 0. 0. 0. 0. 0. 0. 0. 0. 0. 0. 0. 0. 0. 0. 0. 0. 0.
      0. 0. 0. 0. 0. 0. 0. 0. 0. 0. 0. 0. 0. 2.00000003e-01 0. 0. 0. 0.
      0. 0. 0. 0. 0. 0. 0. 0. 0. 0. 0. 0. 0. 0. 0. 0. 0. 0. 0. 0. 0. 0.
      0. 0. 0. 0. 0. 0. 2.00000003e-01 0. 0. 0. 1.00000001e-01 0. 0.
      1.00000001e-01 0. 0. 0. 0.</_>
    <_>
      0. 0. 0. 0. 0. 0. 0. 0. 0. 0. 0. 0. 0. 0. 0. 0. 0. 0. 0. 0. 0. 0.
      0. 0. 0. 0. 0. 0. 0. 0. 0. 0. 1.11111112e-01 0. 0. 0.
      1.11111112e-01 0. 1.11111112e-01 0. 0. 0. 0. 0. 0. 0. 0. 0. 0. 0.
      0. 0. 0. 0. 0. 0. 0. 0. 1.11111112e-01 0. 0. 0. 0. 0. 0. 0. 0. 0.
      0. 0. 0. 0. 0. 0. 0. 0. 0. 0. 0. 0. 0. 0. 0. 1.11111112e-01 0. 0.
      0. 0. 0. 0. 0. 0. 0. 0. 0. 0. 0. 0. 0. 1.11111112e-01 0. 0. 0. 0.
      0. 0. 0. 0. 0. 0. 0. 0. 0. 0. 0. 0. 0. 0. 0. 1.11111112e-01
      1.11111112e-01 0. 0. 0. 0. 0. 1.11111112e-01 0.</_>
    <_>
      0. 0. 0. 0. 0. 0. 0. 0. 0. 0. 0. 0. 7.69230798e-02 7.69230798e-02
      0. 0. 0. 0. 0. 0. 7.69230798e-02 0. 0. 7.69230798e-02 0. 0. 0. 0.
      0. 0. 0. 0. 0. 0. 0. 0. 0. 0. 0. 0. 0. 0. 0. 7.69230798e-02 0. 0.
      0. 0. 0. 0. 0. 0. 0. 7.69230798e-02 0. 0. 0. 0. 0. 0. 0. 0. 0.
      7.69230798e-02 0. 0. 0. 0. 0. 0. 0. 0. 0. 0. 0. 0. 0. 0. 0. 0.
      7.69230798e-02 0. 0. 0. 0. 0. 0. 0. 7.69230798e-02 0. 0. 0. 0. 0.
      0. 0. 0. 0. 0. 7.69230798e-02 0. 0. 0. 0. 0. 0. 7.69230798e-02
      7.69230798e-02 0. 0. 0. 0. 0. 0. 0. 0. 0. 0. 0. 0. 0. 0.
      7.69230798e-02 0. 0. 0. 0. 0.</_>
    <_>
      0. 0. 0. 0. 0. 0. 0. 0. 0. 0. 0. 0. 0. 0. 0. 0. 0. 0. 0. 0. 0. 0.
      0. 0. 0. 0. 0. 0. 0. 0. 0. 7.69230798e-02 0. 0. 0. 0. 0. 0. 0.
      1.53846160e-01 0. 0. 0. 0. 0. 0. 7.69230798e-02 0. 0. 0. 0. 0. 0.
      0. 0. 0. 0. 0. 0. 7.69230798e-02 0. 0. 0. 0. 0. 0. 1.53846160e-01
      0. 0. 0. 0. 0. 0. 7.69230798e-02 0. 0. 0. 0. 0. 0. 0.
      7.69230798e-02 0. 0. 0. 0. 7.69230798e-02 0. 0. 0. 0. 0. 0. 0. 0.
      0. 0. 0. 0. 0. 0. 0. 0. 0. 0. 0. 0. 0. 0. 0. 0. 7.69230798e-02 0.
      0. 0. 0. 0. 0. 0. 0. 0. 0. 0. 0. 0. 0. 1.53846160e-01 0.</_>
    <_>
      0. 0. 0. 0. 0. 0. 0. 0. 0. 0. 0. 0. 0. 0. 0. 0. 2.50000000e-01 0.
      0. 0. 0. 0. 0. 0. 0. 0. 0. 0. 0. 0. 0. 0. 0. 0. 0. 0. 0. 0. 0. 0.
      0. 0. 0. 0. 0. 0. 0. 0. 0. 0. 0. 0. 0. 0. 2.50000000e-01 0. 0. 0.
      0. 0. 0. 0. 0. 0. 2.50000000e-01 0. 2.50000000e-01 0. 0. 0. 0. 0.
      0. 0. 0. 0. 0. 0. 0. 0. 0. 0. 0. 0. 0. 0. 0. 0. 0. 0. 0. 0. 0. 0.
      0. 0. 0. 0. 0. 0. 0. 0. 0. 0. 0. 0. 0. 0. 0. 0. 0. 0. 0. 0. 0. 0.
      0. 0. 0. 0. 0. 0. 0. 0. 0. 0. 0. 0.</_>
    <_>
      0. 0. 0. 0. 0. 0. 0. 1.11111112e-01 0. 0. 1.11111112e-01 0. 0. 0.
      0. 0. 1.11111112e-01 0. 0. 1.11111112e-01 0. 0. 0. 0. 0. 0. 0. 0.
      0. 0. 0. 0. 0. 0. 0. 0. 0. 0. 0. 0. 0. 0. 0. 0. 0. 0. 0. 0. 0. 0.
      1.11111112e-01 0. 0. 0. 0. 0. 0. 0. 0. 0. 0. 0. 0. 0.
      1.11111112e-01 0. 0. 0. 0. 0. 0. 1.11111112e-01 0. 0. 0. 0. 0. 0.
      0. 0. 0. 0. 0. 0. 0. 0. 0. 0. 0. 0. 0. 0. 0. 0. 0. 0. 0. 0. 0. 0.
      0. 0. 0. 0. 0. 0. 0. 0. 0. 0. 0. 0. 2.22222224e-01 0. 0. 0. 0. 0.
      0. 0. 0. 0. 0. 0. 0. 0. 0. 0.</_>
    <_>
      0. 0. 0. 0. 0. 0. 0. 0. 0. 0. 0. 0. 0. 0. 0. 0. 0. 0. 0. 0. 0. 0.
      0. 0. 0. 0. 0. 0. 0. 0. 0. 0. 0. 0. 0. 0. 0. 0. 0. 0. 0. 0. 0. 0.
      0. 0. 0. 0. 0. 0. 0. 0. 0. 0. 0. 0. 0. 0. 0. 0. 0. 0. 0. 0. 0. 0.
      0. 2.85714298e-01 1.42857149e-01 0. 0. 0. 0. 0. 0. 0. 0. 0. 0. 0.
      0. 0. 0. 0. 0. 0. 0. 0. 0. 0. 0. 0. 0. 0. 0. 0. 0. 0.
      1.42857149e-01 0. 0. 0. 0. 0. 0. 0. 2.85714298e-01 0. 0. 0. 0. 0.
      0. 0. 0. 0. 0. 1.42857149e-01 0. 0. 0. 0. 0. 0. 0. 0. 0. 0.</_>
    <_>
      5.26315793e-02 0. 0. 0. 0. 0. 0. 0. 5.26315793e-02 1.05263159e-01
      0. 0. 5.26315793e-02 0. 0. 0. 0. 0. 0. 0. 0. 0. 5.26315793e-02 0.
      0. 0. 0. 0. 0. 0. 0. 0. 0. 0. 0. 0. 0. 0. 1.05263159e-01 0. 0. 0.
      0. 0. 0. 0. 0. 5.26315793e-02 0. 0. 0. 0. 5.26315793e-02 0.
      5.26315793e-02 0. 0. 0. 0. 0. 0. 0. 0. 0. 0. 0. 0. 5.26315793e-02
      0. 0. 0. 0. 5.26315793e-02 0. 0. 0. 0. 0. 0. 0. 0. 0. 0. 0. 0. 0.
      0. 0. 0. 0. 0. 0. 0. 0. 0. 0. 0. 0. 5.26315793e-02 0. 0.
      5.26315793e-02 0. 0. 0. 0. 5.26315793e-02 5.26315793e-02 0.
      5.26315793e-02 0. 0. 0. 0. 0. 0. 0. 0. 5.26315793e-02 0. 0. 0. 0.
      0. 0. 0. 0. 0.</_>
    <_>
      0. 0. 0. 0. 0. 0. 0. 0. 0. 0. 0. 0. 1.66666672e-01 0. 0. 0. 0. 0.
      0. 0. 0. 0. 0. 0. 1.66666672e-01 0. 0. 0. 0. 0. 0. 0. 0. 0. 0. 0.
      0. 0. 0. 0. 1.66666672e-01 0. 0. 0. 0. 0. 0. 0. 0. 0. 0. 0. 0. 0.
      0. 0. 0. 0. 0. 0. 0. 0. 0. 0. 0. 0. 0. 0. 0. 0. 0. 0. 0. 0. 0. 0.
      0. 0. 0. 0. 0. 0. 0. 0. 0. 0. 0. 0. 0. 0. 0. 0. 0. 0. 0. 0. 0. 0.
      0. 0. 0. 0. 0. 0. 0. 0. 0. 0. 0. 1.66666672e-01 0. 0.
      1.66666672e-01 0. 0. 0. 0. 0. 0. 0. 1.66666672e-01 0. 0. 0. 0. 0.
      0. 0.</_>
    <_>
      0. 0. 0. 0. 0. 0. 0. 0. 0. 0. 0. 0. 0. 0. 0. 0. 0. 0. 0. 0. 0. 0.
      0. 0. 0. 0. 0. 0. 0. 0. 0. 0. 0. 0. 0. 0. 0. 0. 0. 0. 0. 0. 0. 0.
      0. 0. 0. 0. 0. 0. 0. 0. 0. 0. 0. 0. 0. 0. 0. 0. 0. 0. 0. 0. 0. 0.
      0. 2.50000000e-01 0. 0. 0. 0. 0. 0. 0. 0. 0. 0. 0. 0. 0.
      2.50000000e-01 0. 0. 2.50000000e-01 0. 0. 0. 0. 0. 0. 0. 0. 0. 0.
      0. 0. 0. 0. 2.50000000e-01 0. 0. 0. 0. 0. 0. 0. 0. 0. 0. 0. 0. 0.
      0. 0. 0. 0. 0. 0. 0. 0. 0. 0. 0. 0. 0. 0. 0.</_>
    <_>
      0. 0. 0. 0. 0. 0. 0. 0. 0. 0. 0. 0. 0. 0. 0. 1.25000000e-01 0. 0.
      0. 0. 0. 0. 0. 0. 0. 0. 0. 0. 0. 0. 0. 0. 0. 0. 0. 0. 0. 0. 0. 0.
      1.25000000e-01 0. 0. 0. 0. 0. 1.25000000e-01 0. 0. 0. 0. 0. 0. 0.
      0. 0. 0. 0. 0. 0. 0. 0. 0. 0. 0. 0. 0. 1.25000000e-01 0. 0. 0. 0.
      0. 0. 0. 0. 0. 1.25000000e-01 0. 0. 0. 0. 0. 0. 0. 0. 0. 0. 0. 0.
      0. 0. 0. 0. 0. 0. 0. 0. 0. 1.25000000e-01 0. 0. 0. 0. 0. 0. 0. 0.
      1.25000000e-01 1.25000000e-01 0. 0. 0. 0. 0. 0. 0. 0. 0. 0. 0. 0.
      0. 0. 0. 0. 0. 0.</_>
    <_>
      0. 0. 0. 0. 0. 0. 0. 0. 0. 0. 0. 0. 0. 0. 0. 0. 0. 0. 0. 0. 0. 0.
      0. 0. 0. 0. 0. 0. 0. 0. 0. 0. 0. 0. 0. 0. 0. 0. 0. 0. 0. 0. 0. 0.
      0. 0. 0. 0. 2.00000003e-01 0. 0. 0. 0. 0. 0. 0. 0. 0. 0. 0. 0. 0.
      0. 0. 0. 0. 0. 0. 0. 0. 0. 0. 0. 0. 0. 0. 0. 0. 2.00000003e-01 0.
      0. 0. 2.00000003e-01 0. 0. 0. 0. 0. 0. 0. 2.00000003e-01 0. 0. 0.
      0. 0. 0. 0. 0. 0. 0. 0. 0. 0. 0. 0. 0. 0. 0. 0. 0. 0. 0. 0. 0. 0.
      0. 0. 0. 0. 0. 0. 0. 0. 0. 0. 2.00000003e-01 0.</_>
    <_>
      4.54545468e-02 0. 0. 0. 0. 0. 0. 0. 0. 0. 0. 0. 0. 0.
      4.54545468e-02 0. 0. 0. 0. 0. 0. 0. 0. 0. 0. 0. 0. 0. 0. 0. 0. 0.
      0. 0. 0. 0. 0. 0. 4.54545468e-02 0. 0. 0. 0. 0. 0. 0. 0. 0. 0. 0.
      0. 0. 0. 0. 0. 0. 1.81818187e-01 0. 0. 0. 0. 0. 0. 0.
      4.54545468e-02 0. 0. 0. 0. 0. 0. 0. 0. 0. 0. 0. 0. 0. 0.
      4.54545468e-02 0. 0. 0. 0. 9.09090936e-02 4.54545468e-02
      4.54545468e-02 0. 0. 0. 0. 0. 4.54545468e-02 0. 0. 0.
      4.54545468e-02 9.09090936e-02 0. 0. 0. 0. 0. 0. 0. 0. 0.
      4.54545468e-02 0. 0. 0. 0. 0. 0. 0. 0. 0. 4.54545468e-02 0. 0. 0.
      0. 0. 4.54545468e-02 0. 9.09090936e-02 0. 0.</_>
    <_>
      0. 0. 0. 0. 0. 0. 0. 0. 0. 0. 0. 0. 0. 0. 0. 0. 0. 0. 0. 0. 0. 0.
      0. 0. 0. 0. 0. 0. 0. 0. 0. 0. 0. 0. 0. 0. 0. 0. 0. 0. 0. 0. 0. 0.
      0. 0. 0. 0. 0. 0. 0. 0. 0. 0. 0. 0. 0. 0. 0. 0. 0. 0. 0. 0. 0. 0.
      0. 0. 0. 0. 0. 3.33333343e-01 0. 0. 0. 0. 0. 0. 0. 0. 0. 0. 0. 0.
      0. 0. 0. 0. 0. 0. 0. 0. 3.33333343e-01 0. 0. 0. 0. 0. 0. 0. 0. 0.
      0. 0. 0. 0. 0. 0. 0. 0. 0. 0. 0. 0. 0. 0. 0. 0. 0. 0. 0. 0. 0. 0.
      0. 0. 3.33333343e-01 0.</_>
    <_>
      0. 0. 0. 0. 0. 0. 0. 0. 0. 0. 0. 0. 0. 0. 0. 0. 0. 0. 0. 0. 0. 0.
      0. 0. 0. 0. 0. 0. 0. 0. 0. 0. 0. 0. 0. 0. 0. 0. 0. 0.
      1.33333340e-01 0. 0. 0. 0. 0. 0. 0. 0. 0. 0. 0. 0. 0. 0. 0. 0. 0.
      1.33333340e-01 0. 0. 0. 0. 6.66666701e-02 6.66666701e-02 0. 0. 0.
      0. 0. 0. 0. 2.00000018e-01 0. 0. 0. 0. 0. 0. 0. 0. 0. 0. 0.
      6.66666701e-02 0. 0. 0. 0. 0. 0. 0. 0. 0. 0. 0. 0. 6.66666701e-02
      0. 1.33333340e-01 0. 0. 0. 0. 0. 0. 0. 0. 0. 0. 0. 0.
      6.66666701e-02 0. 0. 0. 0. 0. 0. 0. 0. 0. 0. 6.66666701e-02 0. 0.
      0. 0.</_>
    <_>
      0. 0. 0. 0. 0. 0. 0. 0. 0. 0. 0. 0. 8.33333358e-02 0. 0. 0. 0. 0.
      0. 0. 0. 0. 0. 0. 0. 0. 0. 0. 0. 0. 0. 0. 0. 0. 0. 0. 0. 0.
      8.33333358e-02 0. 0. 0. 0. 0. 0. 0. 0. 0. 0. 0. 0. 8.33333358e-02
      0. 0. 0. 0. 0. 0. 0. 0. 0. 0. 0. 0. 0. 0. 0. 0. 0. 0. 0.
      8.33333358e-02 0. 0. 0. 8.33333358e-02 8.33333358e-02 0. 0. 0. 0.
      0. 0. 0. 0. 0. 0. 0. 8.33333358e-02 0. 0. 0. 1.66666672e-01
      8.33333358e-02 0. 0. 0. 0. 0. 0. 0. 0. 0. 0. 0. 0. 0. 0.
      1.66666672e-01 0. 0. 0. 0. 0. 0. 0. 0. 0. 0. 0. 0. 0. 0. 0. 0. 0.
      0. 0.</_>
    <_>
      0. 0. 0. 0. 0. 0. 0. 0. 0. 0. 0. 0. 0. 0. 0. 0. 0. 0. 0. 0. 0. 0.
      0. 0. 0. 0. 0. 0. 0. 0. 0. 0. 0. 0. 0. 0. 0. 0. 0. 0. 0. 0. 0. 0.
      3.33333343e-01 0. 0. 0. 0. 0. 0. 0. 3.33333343e-01 0. 0. 0. 0. 0.
      0. 0. 0. 0. 0. 0. 0. 0. 0. 0. 0. 0. 0. 0. 0. 0. 0. 0.
      3.33333343e-01 0. 0. 0. 0. 0. 0. 0. 0. 0. 0. 0. 0. 0. 0. 0. 0. 0.
      0. 0. 0. 0. 0. 0. 0. 0. 0. 0. 0. 0. 0. 0. 0. 0. 0. 0. 0. 0. 0. 0.
      0. 0. 0. 0. 0. 0. 0. 0. 0. 0. 0. 0.</_>
    <_>
      0. 0. 0. 0. 0. 0. 0. 0. 1.11111112e-01 2.22222224e-01 0. 0. 0. 0.
      0. 0. 1.11111112e-01 0. 0. 0. 0. 0. 0. 0. 0. 0. 0. 0. 0. 0. 0. 0.
      0. 0. 0. 0. 0. 1.11111112e-01 0. 0. 0. 0. 0. 0. 0. 1.11111112e-01
      0. 0. 0. 0. 0. 0. 0. 0. 0. 0. 0. 0. 0. 0. 0. 0. 0. 0. 0. 0. 0. 0.
      0. 0. 0. 0. 0. 0. 0. 0. 0. 0. 0. 0. 0. 0. 0. 0. 0. 0.
      1.11111112e-01 0. 0. 0. 0. 0. 0. 0. 0. 0. 0. 0. 0. 0. 0. 0. 0. 0.
      0. 0. 0. 1.11111112e-01 0. 0. 0. 1.11111112e-01 0. 0. 0. 0. 0. 0.
      0. 0. 0. 0. 0. 0. 0. 0. 0. 0.</_>
    <_>
      0. 0. 0. 0. 0. 0. 0. 0. 0. 1.00000001e-01 0. 0. 0. 0. 0. 0. 0. 0.
      0. 0. 0. 0. 1.00000001e-01 0. 0. 0. 0. 0. 0. 0. 0. 0. 0. 0. 0. 0.
      0. 0. 1.00000001e-01 0. 0. 0. 0. 0. 0. 0. 0. 1.00000001e-01 0. 0.
      0. 0. 0. 0. 0. 0. 0. 0. 0. 0. 0. 0. 0. 0. 0. 0. 0. 0. 0. 0. 0. 0.
      0. 0. 0. 0. 0. 0. 0. 0. 0. 0. 0. 1.00000001e-01 0. 0.
      1.00000001e-01 0. 0. 0. 0. 0. 0. 0. 0. 0. 0. 0. 0. 0. 0. 0. 0. 0.
      0. 0. 0. 1.00000001e-01 1.00000001e-01 0. 0. 1.00000001e-01 0. 0.
      0. 0. 0. 1.00000001e-01 0. 0. 0. 0. 0. 0. 0. 0. 0. 0.</_>
    <_>
      0. 0. 0. 0. 0. 0. 0. 0. 0. 0. 0. 0. 0. 0. 7.14285746e-02 0. 0. 0.
      0. 0. 0. 0. 0. 0. 0. 0. 0. 0. 0. 0. 7.14285746e-02 0. 0. 0. 0. 0.
      0. 7.14285746e-02 0. 0. 0. 0. 0. 7.14285746e-02 7.14285746e-02 0.
      0. 0. 7.14285746e-02 0. 7.14285746e-02 0. 7.14285746e-02 0. 0. 0.
      0. 0. 0. 0. 0. 0. 0. 0. 0. 0. 0. 0. 0. 0. 0. 0. 0. 7.14285746e-02
      0. 0. 0. 0. 7.14285746e-02 0. 0. 0. 0. 0. 0. 7.14285746e-02 0. 0.
      0. 0. 0. 0. 0. 0. 0. 0. 0. 0. 0. 0. 0. 0. 0. 0. 0. 0. 0.
      7.14285746e-02 7.14285746e-02 0. 0. 0. 0. 0. 0. 0. 0. 0. 0. 0. 0.
      7.14285746e-02 0. 0. 0. 0. 0. 0.</_>
    <_>
      0. 0. 0. 0. 0. 6.66666701e-02 0. 0. 0. 0. 0. 0. 0. 0. 0. 0. 0. 0.
      0. 1.33333340e-01 0. 0. 0. 0. 6.66666701e-02 0. 0. 0. 0. 0. 0. 0.
      0. 0. 0. 0. 0. 0. 0. 0. 0. 0. 0. 0. 0. 0. 0. 0. 0. 0. 0. 0. 0. 0.
      0. 0. 0. 0. 0. 0. 0. 0. 0. 6.66666701e-02 0. 6.66666701e-02 0. 0.
      0. 0. 0. 0. 0. 6.66666701e-02 0. 0. 6.66666701e-02 0. 0. 0. 0. 0.
      0. 0. 0. 0. 0. 6.66666701e-02 0. 0. 0. 6.66666701e-02 0. 0.
      6.66666701e-02 0. 0. 0. 0. 6.66666701e-02 0. 0. 0. 0. 0. 0. 0. 0.
      0. 0. 0. 0. 0. 0. 0. 0. 0. 0. 0. 0. 0. 0. 0. 6.66666701e-02
      6.66666701e-02 0. 6.66666701e-02 0.</_>
    <_>
      0. 0. 0. 0. 0. 0. 0. 0. 0. 0. 0. 0. 0. 0. 8.33333358e-02 0. 0. 0.
      0. 0. 0. 0. 0. 0. 0. 0. 0. 0. 0. 0. 8.33333358e-02 0. 0. 0. 0. 0.
      0. 0. 0. 0. 0. 0. 0. 0. 0. 0. 0. 0. 0. 0. 8.33333358e-02 0. 0. 0.
      0. 0. 0. 0. 0. 8.33333358e-02 0. 0. 0. 0. 0. 0. 0. 0. 0. 0. 0. 0.
      8.33333358e-02 8.33333358e-02 0. 0. 0. 0. 0. 0. 0. 8.33333358e-02
      0. 0. 0. 0. 0. 0. 0. 0. 0. 0. 0. 0. 8.33333358e-02 0. 0. 0. 0. 0.
      0. 0. 1.66666672e-01 0. 0. 0. 0. 0. 0. 0. 0. 0. 0. 0. 0. 0. 0. 0.
      0. 0. 0. 0. 8.33333358e-02 0. 0. 0. 0. 8.33333358e-02</_>
    <_>
      0. 0. 0. 0. 0. 0. 0. 0. 0. 0. 0. 0. 0. 0. 0. 0. 0. 0. 0. 0. 0. 0.
      0. 0. 0. 0. 0. 0. 0. 0. 0. 0. 0. 0. 0. 0. 0. 0. 0. 0. 0. 0. 0. 0.
      0. 0. 0. 0. 0. 0. 0. 0. 0. 0. 0. 0. 0. 2.50000000e-01 0. 0. 0. 0.
      0. 0. 0. 0. 0. 2.50000000e-01 0. 0. 0. 0. 0. 0. 0. 0. 0. 0. 0. 0.
      0. 0. 0. 2.50000000e-01 0. 0. 0. 0. 0. 0. 0. 0. 0. 0. 0. 0. 0. 0.
      0. 0. 0. 0. 0. 0. 0. 0. 0. 0. 0. 2.50000000e-01 0. 0. 0. 0. 0. 0.
      0. 0. 0. 0. 0. 0. 0. 0. 0. 0. 0. 0.</_>
    <_>
      0. 0. 0. 0. 0. 0. 0. 0. 0. 0. 0. 0. 0. 0. 0. 0. 0. 0. 0.
      9.09090936e-02 0. 0. 1.81818187e-01 0. 0. 0. 0. 0. 0. 0. 0. 0. 0.
      0. 0. 0. 0. 0. 0. 0. 0. 0. 0. 0. 0. 9.09090936e-02 0. 0. 0. 0.
      9.09090936e-02 0. 0. 0. 0. 0. 0. 0. 0. 0. 0. 0. 0. 0. 0. 0. 0. 0.
      0. 0. 0. 0. 0. 0. 0. 0. 0. 0. 9.09090936e-02 0. 0. 0. 0. 0. 0. 0.
      0. 0. 0. 0. 0. 0. 0. 0. 0. 9.09090936e-02 0. 0. 0. 0. 0. 0.
      9.09090936e-02 0. 0. 0. 0. 0. 0. 0. 0. 9.09090936e-02 0. 0.
      9.09090936e-02 0. 9.09090936e-02 0. 0. 0. 0. 0. 0. 0. 0. 0. 0. 0.</_>
    <_>
      0. 0. 0. 0. 0. 0. 0. 0. 0. 0. 0. 0. 0. 0. 0. 0. 0. 0. 0. 0. 0. 0.
      0. 0. 0. 0. 0. 0. 0. 0. 0. 0. 0. 0. 0. 0. 0. 0. 0. 0. 0. 0. 0.
      2.22222224e-01 0. 1.11111112e-01 0. 0. 0. 0. 0. 0. 0. 0. 0. 0. 0.
      0. 0. 0. 0. 0. 0. 0. 0. 0. 2.22222224e-01 0. 0. 0. 0. 0. 0.
      1.11111112e-01 1.11111112e-01 0. 0. 0. 0. 0. 0. 0. 0. 0. 0. 0. 0.
      0. 0. 0. 0. 0. 0. 0. 0. 0. 0. 0. 0. 0. 0. 0. 0. 0. 0. 0. 0. 0. 0.
      0. 0. 0. 1.11111112e-01 0. 0. 0. 0. 1.11111112e-01 0. 0. 0. 0. 0.
      0. 0. 0. 0. 0.</_>
    <_>
      0. 0. 0. 0. 0. 0. 0. 0. 0. 0. 0. 0. 0. 0. 0. 0. 0. 3.84615399e-02
      0. 3.84615399e-02 0. 0. 3.84615399e-02 0. 0. 0. 0. 0. 0. 0. 0.
      3.84615399e-02 0. 3.84615399e-02 0. 0. 3.84615399e-02 0. 0. 0. 0.
      0. 0. 0. 0. 0. 0. 3.84615399e-02 0. 0. 0. 3.84615399e-02 0. 0. 0.
      0. 3.84615399e-02 0. 0. 0. 0. 3.84615399e-02 0. 0. 0. 0. 0. 0. 0.
      0. 0. 0. 0. 3.84615399e-02 0. 3.84615399e-02 7.69230798e-02 0.
      7.69230798e-02 0. 0. 0. 0. 0. 0. 0. 0. 0. 3.84615399e-02 0.
      7.69230798e-02 0. 3.84615399e-02 0. 0. 0. 0. 0. 0. 0. 0.
      3.84615399e-02 0. 0. 0. 0. 0. 0. 0. 0. 3.84615399e-02 0. 0. 0.
      7.69230798e-02 0. 0. 0. 0. 0. 0. 0. 0. 0. 0. 0. 3.84615399e-02
      3.84615399e-02</_>
    <_>
      0. 0. 0. 0. 0. 0. 0. 0. 0. 1.42857149e-01 0. 0. 0. 0. 0. 0. 0. 0.
      0. 0. 0. 0. 0. 0. 0. 0. 0. 1.42857149e-01 0. 0. 0. 0. 0. 0. 0. 0.
      0. 0. 0. 0. 0. 0. 0. 0. 0. 0. 0. 0. 0. 0. 0. 0. 0. 0. 0. 0.
      1.42857149e-01 0. 0. 0. 0. 0. 0. 0. 0. 0. 0. 0. 0. 0. 0. 0. 0. 0.
      0. 0. 0. 0. 0. 0. 0. 0. 0. 0. 1.42857149e-01 0. 0. 0. 0. 0. 0. 0.
      0. 0. 0. 0. 1.42857149e-01 0. 0. 0. 0. 0. 0. 0. 0. 0. 0. 0. 0. 0.
      0. 0. 0. 0. 0. 0. 0. 0. 1.42857149e-01 0. 1.42857149e-01 0. 0. 0.
      0. 0. 0. 0.</_>
    <_>
      0. 0. 0. 0. 0. 6.25000000e-02 0. 6.25000000e-02 0. 0. 0. 0. 0. 0.
      0. 0. 0. 0. 0. 6.25000000e-02 0. 0. 6.25000000e-02 0. 0. 0. 0. 0.
      0. 0. 0. 0. 0. 0. 0. 0. 6.25000000e-02 0. 6.25000000e-02 0. 0. 0.
      0. 0. 0. 0. 0. 0. 0. 0. 0. 0. 0. 0. 0. 0. 1.25000000e-01 0. 0. 0.
      0. 0. 0. 0. 0. 0. 0. 6.25000000e-02 0. 0. 0. 6.25000000e-02 0. 0.
      0. 0. 0. 0. 0. 0. 0. 6.25000000e-02 0. 0. 0. 0. 0. 0. 0. 0. 0. 0.
      6.25000000e-02 0. 0. 0. 0. 0. 0. 6.25000000e-02 0. 0. 0. 0. 0. 0.
      0. 0. 0. 0. 0. 0. 0. 0. 0. 0. 0. 0. 6.25000000e-02 0. 0. 0. 0.
      1.25000000e-01 0. 0. 0. 0.</_>
    <_>
      0. 0. 0. 0. 0. 0. 0. 9.09090936e-02 0. 0. 0. 0. 4.54545468e-02 0.
      0. 0. 0. 0. 0. 0. 0. 0. 0. 0. 4.54545468e-02 0. 0. 0. 0. 0. 0. 0.
      0. 0. 0. 0. 0. 0. 4.54545468e-02 9.09090936e-02 4.54545468e-02 0.
      0. 4.54545468e-02 0. 0. 0. 0. 4.54545468e-02 0. 0. 0. 0. 0. 0. 0.
      0. 4.54545468e-02 4.54545468e-02 0. 0. 0. 0. 4.54545468e-02 0.
      9.09090936e-02 0. 4.54545468e-02 4.54545468e-02 0. 0. 0. 0. 0. 0.
      0. 0. 0. 0. 0. 0. 0. 0. 4.54545468e-02 0. 0. 0. 0. 4.54545468e-02
      0. 0. 0. 0. 4.54545468e-02 0. 0. 0. 0. 0. 0. 0. 0. 0. 0. 0. 0. 0.
      0. 0. 0. 0. 0. 0. 0. 0. 0. 4.54545468e-02 0. 0. 0. 4.54545468e-02
      0. 0. 0. 0. 0. 0. 0.</_>
    <_>
      0. 0. 0. 0. 0. 0. 0. 0. 0. 0. 0. 0. 0. 0. 0. 0. 0. 2.50000000e-01
      0. 0. 0. 0. 0. 0. 0. 0. 0. 0. 0. 0. 0. 0. 0. 0. 0. 0. 0. 0. 0. 0.
      0. 0. 0. 2.50000000e-01 0. 0. 0. 0. 0. 0. 0. 0. 0. 0. 0. 0. 0. 0.
      0. 0. 0. 0. 0. 2.50000000e-01 0. 0. 0. 0. 0. 0. 2.50000000e-01 0.
      0. 0. 0. 0. 0. 0. 0. 0. 0. 0. 0. 0. 0. 0. 0. 0. 0. 0. 0. 0. 0. 0.
      0. 0. 0. 0. 0. 0. 0. 0. 0. 0. 0. 0. 0. 0. 0. 0. 0. 0. 0. 0. 0. 0.
      0. 0. 0. 0. 0. 0. 0. 0. 0. 0. 0. 0.</_>
    <_>
      0. 0. 0. 0. 0. 0. 0. 5.55555560e-02 0. 5.55555560e-02 0. 0. 0. 0.
      0. 0. 0. 0. 0. 0. 0. 0. 5.55555560e-02 0. 0. 0. 0. 1.11111112e-01
      0. 0. 0. 0. 0. 0. 0. 0. 5.55555560e-02 0. 0. 0. 0. 0. 0. 0. 0. 0.
      0. 1.11111112e-01 0. 0. 0. 0. 5.55555560e-02 0. 0. 0. 0. 0. 0.
      5.55555560e-02 0. 0. 0. 0. 0. 0. 0. 1.11111112e-01 0. 0. 0. 0. 0.
      0. 0. 0. 0. 0. 0. 0. 0. 5.55555560e-02 0. 0. 0. 0. 0. 0. 0. 0. 0.
      0. 0. 0. 0. 0. 0. 5.55555560e-02 0. 5.55555560e-02 0. 0. 0. 0. 0.
      0. 0. 0. 0. 5.55555560e-02 0. 0. 0. 0. 0. 0. 0. 0. 5.55555560e-02
      0. 0. 5.55555560e-02 0. 0. 0. 0. 0. 0.</_>
    <_>
      0. 0. 0. 0. 0. 0. 0. 0. 1.42857149e-01 0. 0. 0. 0. 0. 0. 0. 0. 0.
      0. 0. 0. 0. 0. 0. 0. 0. 0. 0. 0. 0. 0. 0. 0. 0. 0. 0.
      1.42857149e-01 0. 0. 0. 0. 0. 0. 0. 0. 0. 0. 0. 0. 0. 0.
      1.42857149e-01 0. 0. 0. 0. 0. 0. 0. 2.85714298e-01 0. 0. 0. 0. 0.
      0. 0. 0. 0. 0. 0. 0. 0. 0. 0. 0. 0. 0. 0. 0. 0. 0. 0. 0. 0. 0.
      1.42857149e-01 0. 0. 0. 0. 0. 0. 0. 0. 0. 0. 0. 0. 0. 0. 0. 0. 0.
      0. 0. 0. 0. 0. 0. 0. 1.42857149e-01 0. 0. 0. 0. 0. 0. 0. 0. 0. 0.
      0. 0. 0. 0. 0. 0.</_>
    <_>
      0. 0. 0. 0. 0. 0. 0. 0. 0. 0. 0. 0. 0. 0. 0. 0. 0. 0. 0. 0. 0. 0.
      0. 0. 5.88235296e-02 0. 5.88235296e-02 5.88235296e-02 0. 0. 0. 0.
      0. 0. 0. 0. 0. 0. 0. 0. 5.88235296e-02 0. 0. 5.88235296e-02
      5.88235296e-02 0. 0. 5.88235296e-02 0. 0. 0. 0. 0. 0. 0. 0. 0. 0.
      5.88235296e-02 0. 0. 0. 0. 0. 0. 5.88235296e-02 0. 0. 0. 0. 0. 0.
      0. 0. 0. 0. 0. 0. 0. 0. 0. 0. 0. 5.88235296e-02 0. 0. 0. 0. 0.
      5.88235296e-02 0. 0. 0. 0. 0. 5.88235296e-02 0. 0. 0.
      5.88235296e-02 0. 5.88235296e-02 0. 0. 5.88235296e-02 0. 0. 0. 0.
      5.88235296e-02 0. 0. 0. 0. 0. 0. 0. 0. 0. 0. 0. 0. 0.
      5.88235296e-02 0. 0. 0. 0.</_>
    <_>
      0. 0. 0. 0. 0. 0. 0. 0. 6.66666701e-02 0. 0. 0. 0. 0.
      1.33333340e-01 0. 0. 0. 0. 0. 0. 0. 0. 0. 0. 0. 6.66666701e-02 0.
      0. 0. 0. 0. 0. 0. 0. 0. 0. 1.33333340e-01 0. 0. 0. 0. 0. 0. 0. 0.
      0. 0. 0. 0. 0. 0. 6.66666701e-02 0. 0. 0. 6.66666701e-02 0. 0. 0.
      0. 0. 0. 0. 0. 0. 0. 0. 0. 0. 0. 0. 0. 0. 0. 0. 0. 0. 0. 0. 0. 0.
      0. 6.66666701e-02 0. 6.66666701e-02 0. 6.66666701e-02 0.
      6.66666701e-02 0. 6.66666701e-02 0. 0. 0. 0. 0. 0. 6.66666701e-02
      0. 0. 0. 0. 0. 0. 0. 0. 0. 6.66666701e-02 0. 0. 0. 0. 0. 0. 0. 0.
      0. 0. 0. 0. 0. 0. 0. 0. 0. 0. 0.</_>
    <_>
      0. 0. 0. 0. 0. 0. 0. 0. 0. 0. 0. 0. 0. 0. 0. 0. 0. 0. 0. 0. 0. 0.
      0. 0. 0. 0. 0. 0. 0. 0. 2.00000003e-01 0. 0. 0. 0. 0. 0. 0. 0. 0.
      0. 0. 0. 0. 0. 2.00000003e-01 0. 0. 0. 0. 0. 0. 0. 0. 0. 0. 0.
      2.00000003e-01 0. 0. 0. 0. 0. 0. 0. 0. 0. 0. 0. 0. 0. 0. 0. 0. 0.
      0. 0. 0. 0. 0. 0. 0. 0. 2.00000003e-01 0. 0. 0. 0. 0. 0. 0. 0. 0.
      0. 0. 0. 0. 0. 0. 0. 0. 0. 0. 0. 0. 0. 0. 0. 0. 0. 0. 0. 0. 0. 0.
      0. 2.00000003e-01 0. 0. 0. 0. 0. 0. 0. 0. 0. 0. 0.</_>
    <_>
      0. 0. 0. 0. 0. 0. 0. 0. 0. 0. 0. 0. 0. 0. 0. 0. 0. 9.09090936e-02
      0. 0. 0. 0. 0. 0. 0. 0. 0. 0. 0. 0. 0. 9.09090936e-02 0. 0. 0. 0.
      0. 0. 0. 0. 0. 9.09090936e-02 0. 0. 0. 0. 9.09090936e-02 0. 0. 0.
      0. 9.09090936e-02 0. 0. 0. 0. 0. 0. 0. 0. 0. 9.09090936e-02 0. 0.
      0. 0. 0. 0. 9.09090936e-02 0. 0. 0. 0. 0. 0. 0. 0. 9.09090936e-02
      0. 0. 0. 0. 9.09090936e-02 0. 0. 0. 0. 0. 0. 9.09090936e-02 0. 0.
      0. 0. 0. 0. 0. 0. 0. 0. 0. 0. 0. 0. 0. 0. 0. 0. 0. 0. 0. 0. 0. 0.
      0. 0. 0. 9.09090936e-02 0. 0. 0. 0. 0. 0. 0. 0. 0. 0.</_>
    <_>
      0. 0. 0. 0. 0. 0. 0. 0. 0. 0. 0. 0. 0. 0. 0. 0. 0. 0. 0. 0. 0. 0.
      0. 0. 0. 0. 0. 0. 0. 0. 0. 0. 0. 0. 0. 0. 0. 0. 0. 0. 0. 0. 0. 0.
      0. 0. 0. 0. 0. 0. 0. 0. 0. 0. 0. 0. 0. 0. 0. 0. 0. 0. 0. 0. 0. 0.
      0. 0. 0. 0. 0. 0. 0. 0. 0. 2.50000000e-01 0. 0. 0. 0. 0. 0. 0. 0.
      0. 0. 0. 0. 2.50000000e-01 0. 0. 0. 0. 0. 2.50000000e-01 0. 0. 0.
      0. 0. 0. 0. 0. 0. 0. 0. 0. 0. 0. 0. 0. 0. 0. 0. 0. 0. 0. 0. 0. 0.
      0. 0. 2.50000000e-01 0. 0. 0. 0. 0.</_>
    <_>
      5.55555560e-02 0. 0. 0. 0. 0. 0. 0. 0. 0. 0. 0. 0. 0. 0. 0. 0. 0.
      0. 0. 0. 0. 0. 0. 0. 0. 5.55555560e-02 0. 0. 0. 0. 0. 0. 0. 0. 0.
      0. 0. 0. 0. 0. 0. 0. 0. 0. 0. 5.55555560e-02 0. 0. 0.
      5.55555560e-02 0. 0. 0. 0. 0. 5.55555560e-02 0. 5.55555560e-02 0.
      0. 5.55555560e-02 0. 0. 0. 0. 0. 0. 0. 0. 0. 5.55555560e-02 0. 0.
      5.55555560e-02 0. 0. 5.55555560e-02 0. 0. 0. 0. 5.55555560e-02 0.
      5.55555560e-02 0. 0. 5.55555560e-02 0. 0. 0. 0. 0. 0. 0. 0. 0.
      5.55555560e-02 0. 0. 5.55555560e-02 0. 0. 0. 0. 0. 0. 0. 0.
      5.55555560e-02 0. 0. 0. 0. 1.11111112e-01 0. 0. 0. 0. 0. 0. 0. 0.
      0. 0. 0. 0. 0.</_>
    <_>
      8.33333358e-02 0. 0. 0. 0. 0. 0. 0. 0. 0. 0. 0. 8.33333358e-02 0.
      0. 0. 0. 0. 0. 0. 0. 0. 0. 0. 0. 0. 0. 0. 0. 0. 0. 0. 0. 0. 0. 0.
      0. 0. 1.66666672e-01 0. 0. 8.33333358e-02 0. 0. 0. 0. 0. 0. 0. 0.
      0. 0. 0. 0. 0. 0. 0. 0. 0. 0. 0. 0. 0. 0. 0. 8.33333358e-02 0. 0.
      0. 0. 0. 0. 0. 0. 0. 0. 0. 0. 0. 0. 0. 8.33333358e-02 0. 0. 0. 0.
      0. 0. 8.33333358e-02 0. 0. 0. 0. 0. 8.33333358e-02 0. 0. 0. 0. 0.
      0. 0. 0. 0. 8.33333358e-02 0. 0. 0. 0. 0. 0. 0. 0. 0. 0. 0. 0. 0.
      0. 0. 0. 0. 0. 8.33333358e-02 0. 8.33333358e-02 0. 0.</_>
    <_>
      0. 0. 0. 0. 0. 0. 0. 0. 0. 0. 0. 0. 0. 0. 0. 0. 0. 0. 0. 0. 0. 0.
      0. 0. 0. 0. 0. 7.14285746e-02 0. 0. 0. 0. 0. 7.14285746e-02 0. 0.
      0. 0. 0. 0. 0. 0. 0. 0. 7.14285746e-02 0. 0. 0. 0. 0. 0. 0. 0. 0.
      0. 0. 0. 0. 0. 0. 0. 0. 0. 0. 7.14285746e-02 0. 0. 0. 0. 0. 0. 0.
      0. 0. 0. 0. 0. 7.14285746e-02 0. 0. 0. 0. 0. 0. 0. 0. 0. 0.
      7.14285746e-02 0. 0. 0. 7.14285746e-02 0. 7.14285746e-02 0.
      7.14285746e-02 0. 0. 0. 0. 7.14285746e-02 0. 0. 0. 0. 0.
      7.14285746e-02 0. 0. 0. 0. 0. 0. 0. 0. 7.14285746e-02 0. 0. 0. 0.
      0. 0. 0. 0. 7.14285746e-02 0. 7.14285746e-02</_>
    <_>
      0. 0. 0. 0. 0. 2.50000000e-01 0. 0. 0. 0. 0. 0. 0. 0. 0. 0. 0. 0.
      0. 0. 0. 0. 2.50000000e-01 0. 0. 0. 0. 0. 0. 0. 0. 0. 0. 0. 0. 0.
      0. 0. 0. 0. 0. 0. 0. 0. 0. 0. 0. 0. 0. 0. 2.50000000e-01 0. 0. 0.
      0. 0. 0. 0. 0. 0. 0. 0. 0. 0. 0. 0. 0. 0. 0. 0. 0. 0. 0. 0. 0. 0.
      0. 0. 0. 0. 0. 0. 0. 0. 0. 0. 0. 0. 0. 0. 0. 0. 0. 0. 0. 0. 0. 0.
      0. 0. 0. 0. 0. 0. 0. 0. 0. 2.50000000e-01 0. 0. 0. 0. 0. 0. 0. 0.
      0. 0. 0. 0. 0. 0. 0. 0. 0. 0. 0. 0.</_>
    <_>
      0. 0. 0. 0. 0. 0. 0. 0. 0. 0. 0. 0. 0. 0. 0. 0. 0. 0. 0. 0. 0. 0.
      0. 0. 0. 0. 0. 0. 0. 0. 0. 0. 0. 0. 0. 0. 0. 0. 0. 0. 0. 0. 0. 0.
      0. 0. 0. 0. 0. 0. 0. 0. 0. 0. 0. 0. 2.72727281e-01 0. 0. 0. 0. 0.
      0. 0. 0. 1.81818187e-01 0. 0. 0. 0. 0. 9.09090936e-02 0. 0. 0. 0.
      0. 0. 0. 0. 0. 0. 9.09090936e-02 0. 1.81818187e-01 0. 0. 0. 0. 0.
      0. 0. 0. 0. 0. 0. 0. 0. 0. 0. 0. 0. 0. 0. 0. 0. 0. 0. 0.
      9.09090936e-02 0. 0. 0. 0. 0. 0. 0. 0. 9.09090936e-02 0. 0. 0. 0.
      0. 0. 0. 0. 0.</_>
    <_>
      0. 0. 0. 0. 0. 0. 0. 0. 0. 0. 0. 0. 0. 0. 0. 0. 0. 0. 0. 0. 0. 0.
      0. 0. 0. 0. 0. 0. 0. 0. 0. 3.33333343e-01 0. 0. 0. 0. 0. 0. 0. 0.
      0. 0. 0. 0. 0. 0. 0. 0. 0. 0. 0. 0. 0. 0. 0. 0. 0. 0. 0. 0. 0. 0.
      0. 0. 0. 0. 0. 0. 0. 0. 0. 0. 0. 0. 0. 0. 0. 0. 0. 0. 0. 0. 0. 0.
      0. 0. 0. 0. 0. 0. 0. 0. 0. 0. 3.33333343e-01 0. 0. 0. 0. 0. 0. 0.
      0. 0. 0. 0. 0. 0. 3.33333343e-01 0. 0. 0. 0. 0. 0. 0. 0. 0. 0. 0.
      0. 0. 0. 0. 0. 0. 0. 0.</_>
    <_>
      0. 0. 0. 0. 0. 0. 0. 1.00000001e-01 0. 0. 0. 0. 0. 0.
      3.00000012e-01 0. 0. 0. 0. 0. 0. 0. 0. 0. 0. 0. 0. 0. 0. 0. 0. 0.
      0. 0. 0. 0. 0. 0. 0. 0. 0. 0. 0. 0. 0. 0. 0. 0. 0. 0. 0. 0. 0. 0.
      0. 0. 0. 0. 0. 0. 0. 0. 0. 0. 0. 0. 0. 0. 1.00000001e-01 0. 0. 0.
      0. 0. 0. 0. 1.00000001e-01 0. 0. 0. 1.00000001e-01 0. 0. 0. 0.
      1.00000001e-01 0. 0. 0. 0. 0. 0. 0. 0. 0. 0. 0. 0. 0. 0. 0. 0. 0.
      0. 0. 0. 0. 1.00000001e-01 0. 0. 0. 0. 0. 0. 0. 0. 0. 0. 0. 0. 0.
      0. 0. 0. 0. 0. 0. 1.00000001e-01</_>
    <_>
      3.99999991e-02 0. 0. 0. 0. 0. 0. 0. 0. 0. 0. 0. 0. 0. 0.
      3.99999991e-02 0. 3.99999991e-02 0. 0. 0. 0. 0. 0. 3.99999991e-02
      0. 0. 3.99999991e-02 0. 0. 0. 0. 0. 0. 0. 0. 0. 0. 0. 0. 0. 0. 0.
      0. 3.99999991e-02 0. 0. 3.99999991e-02 0. 0. 3.99999991e-02 0. 0.
      0. 0. 0. 0. 0. 3.99999991e-02 3.99999991e-02 0. 0. 0. 0.
      3.99999991e-02 0. 0. 3.99999991e-02 0. 0. 0. 3.99999991e-02 0.
      3.99999991e-02 3.99999991e-02 0. 0. 0. 0. 0. 0. 0. 7.99999982e-02
      0. 0. 0. 0. 0. 3.99999991e-02 0. 0. 0. 0. 0. 0. 0. 0.
      3.99999991e-02 7.99999982e-02 3.99999991e-02 0. 0. 0. 0. 0.
      3.99999991e-02 0. 0. 0. 0. 0. 0. 0. 0. 0. 0. 0. 0. 0. 0.
      3.99999991e-02 0. 0. 3.99999991e-02 0. 0. 0. 0.</_>
    <_>
      0. 0. 0. 0. 0. 0. 0. 0. 0. 0. 0. 0. 0. 0. 0. 0. 0. 1.25000000e-01
      0. 1.25000000e-01 0. 0. 0. 0. 0. 0. 0. 0. 0. 0. 0. 0. 0. 0. 0. 0.
      0. 0. 0. 0. 0. 0. 0. 0. 0. 0. 0. 0. 0. 0. 0. 0. 0. 0. 0. 0. 0. 0.
      1.25000000e-01 0. 0. 0. 0. 0. 0. 0. 0. 0. 1.25000000e-01 0. 0. 0.
      0. 0. 0. 0. 0. 1.25000000e-01 0. 0. 0. 0. 0. 0. 0. 0. 0. 0. 0. 0.
      0. 0. 0. 0. 0. 0. 0. 0. 0. 2.50000000e-01 0. 0. 0. 0. 0. 0. 0. 0.
      0. 1.25000000e-01 0. 0. 0. 0. 0. 0. 0. 0. 0. 0. 0. 0. 0. 0. 0. 0.
      0. 0.</_>
    <_>
      0. 0. 0. 0. 0. 0. 0. 0. 0. 0. 0. 0. 0. 0. 0. 0. 1.00000001e-01 0.
      0. 0. 0. 0. 0. 0. 0. 0. 0. 1.00000001e-01 0. 0. 0. 0. 0. 0. 0. 0.
      0. 0. 0. 0. 0. 0. 0. 0. 0. 0. 0. 0. 0. 0. 1.00000001e-01 0. 0. 0.
      0. 0. 0. 0. 1.00000001e-01 0. 0. 0. 0. 0. 0. 0. 1.00000001e-01 0.
      0. 0. 0. 0. 0. 0. 0. 0. 0. 0. 0. 0. 0. 0. 0. 0. 0. 0. 0. 0.
      1.00000001e-01 0. 0. 0. 0. 0. 0. 0. 0. 0. 0. 0. 1.00000001e-01 0.
      0. 0. 0. 0. 0. 0. 0. 0. 1.00000001e-01 0. 0. 0. 1.00000001e-01 0.
      0. 0. 0. 0. 0. 0. 0. 0. 0. 0. 0. 1.00000001e-01</_>
    <_>
      0. 0. 0. 0. 0. 0. 0. 0. 0. 0. 0. 0. 0. 0. 0. 0. 0. 0. 0. 0. 0. 0.
      0. 0. 0. 0. 0. 0. 0. 0. 0. 0. 0. 0. 0. 0. 0. 0. 0. 0. 0. 0. 0. 0.
      0. 0. 0. 0. 0. 0. 1.00000001e-01 0. 2.00000003e-01 0. 0. 0. 0.
      1.00000001e-01 0. 0. 0. 0. 0. 0. 0. 0. 0. 0. 0. 0. 0. 0. 0.
      1.00000001e-01 0. 0. 0. 0. 0. 0. 0. 0. 0. 0. 0. 0. 0. 0. 0. 0. 0.
      0. 0. 0. 0. 0. 0. 0. 1.00000001e-01 0. 0. 0. 1.00000001e-01 0. 0.
      0. 0. 1.00000001e-01 0. 0. 0. 0. 0. 0. 0. 0. 0. 0. 1.00000001e-01
      0. 0. 1.00000001e-01 0. 0. 0. 0. 0. 0.</_>
    <_>
      0. 0. 0. 0. 0. 0. 1.11111112e-01 0. 0. 0. 0. 5.55555560e-02 0. 0.
      0. 0. 0. 0. 0. 0. 0. 0. 0. 0. 5.55555560e-02 0. 0. 0. 0. 0. 0. 0.
      0. 0. 0. 0. 0. 0. 0. 0. 0. 0. 0. 0. 5.55555560e-02 0. 0. 0. 0. 0.
      0. 0. 0. 0. 0. 0. 0. 0. 0. 0. 0. 0. 0. 5.55555560e-02
      5.55555560e-02 0. 0. 0. 0. 0. 0. 0. 0. 0. 0. 0. 5.55555560e-02 0.
      0. 5.55555560e-02 5.55555560e-02 0. 0. 0. 0. 0. 0. 0.
      5.55555560e-02 0. 0. 0. 0. 0. 0. 0. 0. 0. 0. 5.55555560e-02 0. 0.
      5.55555560e-02 0. 0. 0. 5.55555560e-02 0. 0. 0. 0. 0. 0. 0.
      5.55555560e-02 0. 5.55555560e-02 5.55555560e-02 5.55555560e-02 0.
      0. 0. 0. 0. 0. 0. 0. 0.</_>
    <_>
      1.00000001e-01 0. 0. 0. 0. 0. 0. 0. 0. 0. 0. 0. 0. 0. 0. 0. 0. 0.
      0. 0. 0. 0. 0. 0. 0. 0. 0. 0. 0. 0. 0. 0. 0. 0. 1.00000001e-01 0.
      0. 0. 0. 0. 0. 0. 0. 0. 1.00000001e-01 0. 0. 0. 0. 0. 0. 0. 0. 0.
      0. 0. 1.00000001e-01 0. 0. 0. 0. 0. 0. 0. 2.00000003e-01
      1.00000001e-01 0. 0. 0. 0. 0. 0. 0. 0. 0. 0. 0. 0. 0. 0. 0. 0. 0.
      0. 0. 0. 1.00000001e-01 0. 0. 0. 0. 0. 0. 0. 0. 0. 1.00000001e-01
      0. 0. 0. 0. 0. 0. 0. 0. 0. 0. 0. 0. 0. 0. 0. 0. 0. 0. 0. 0. 0.
      1.00000001e-01 0. 0. 0. 0. 0. 0. 0. 0. 0.</_>
    <_>
      0. 0. 0. 0. 0. 0. 0. 0. 1.11111112e-01 0. 0. 0. 0. 0. 0. 0. 0. 0.
      0. 0. 0. 0. 0. 0. 0. 0. 0. 0. 0. 0. 0. 0. 0. 0. 0. 0. 0. 0. 0. 0.
      0. 0. 0. 0. 2.22222224e-01 0. 0. 0. 0. 0. 0. 0. 0. 0. 0. 0. 0. 0.
      0. 0. 0. 0. 0. 0. 0. 0. 0. 0. 0. 0. 0. 0. 0. 0. 0. 1.11111112e-01
      0. 0. 0. 0. 0. 0. 0. 0. 0. 0. 0. 1.11111112e-01 0. 0. 0. 0. 0. 0.
      1.11111112e-01 0. 0. 0. 0. 0. 0. 0. 0. 0. 0. 0. 0. 1.11111112e-01
      0. 0. 0. 0. 0. 0. 0. 0. 0. 0. 1.11111112e-01 0. 0. 1.11111112e-01
      0. 0. 0. 0. 0. 0.</_>
    <_>
      0. 0. 0. 0. 0. 8.33333358e-02 0. 0. 0. 0. 0. 0. 0. 0.
      8.33333358e-02 0. 0. 0. 0. 0. 0. 0. 0. 0. 0. 0. 0. 0. 0. 0. 0. 0.
      0. 0. 0. 0. 0. 8.33333358e-02 0. 0. 0. 0. 0. 0. 1.66666672e-01 0.
      0. 0. 0. 0. 0. 0. 0. 0. 0. 0. 0. 8.33333358e-02 0. 0. 0. 0. 0. 0.
      0. 0. 0. 0. 0. 0. 0. 8.33333358e-02 0. 0. 0. 0. 0. 0. 0. 0. 0. 0.
      0. 0. 0. 0. 8.33333358e-02 0. 0. 0. 0. 0. 0. 8.33333358e-02 0. 0.
      0. 0. 0. 0. 0. 0. 0. 0. 0. 8.33333358e-02 0. 8.33333358e-02 0. 0.
      0. 0. 0. 0. 0. 0. 0. 0. 0. 0. 0. 8.33333358e-02 0. 0. 0. 0. 0. 0.</_>
    <_>
      0. 0. 3.70370373e-02 0. 0. 3.70370373e-02 0. 0. 3.70370373e-02
      3.70370373e-02 0. 0. 0. 0. 7.40740746e-02 0. 0. 0. 0.
      3.70370373e-02 0. 0. 0. 0. 3.70370373e-02 0. 0. 0. 0. 0. 0. 0. 0.
      0. 3.70370373e-02 0. 0. 3.70370373e-02 0. 0. 0. 0. 0. 0. 0. 0. 0.
      0. 0. 0. 0. 0. 0. 0. 3.70370373e-02 0. 0. 7.40740746e-02 0.
      3.70370373e-02 0. 0. 0. 0. 0. 3.70370373e-02 0. 0. 0. 0. 0. 0. 0.
      0. 0. 3.70370373e-02 0. 0. 0. 3.70370373e-02 0. 0. 0. 0. 0. 0.
      3.70370373e-02 0. 0. 0. 0. 0. 0. 0. 0. 0. 0. 0. 0. 0. 0. 0. 0. 0.
      3.70370373e-02 3.70370373e-02 0. 0. 0. 0. 3.70370373e-02 0. 0. 0.
      0. 0. 0. 0. 3.70370373e-02 0. 0. 1.11111112e-01 3.70370373e-02 0.
      0. 0. 3.70370373e-02 0.</_>
    <_>
      0. 0. 0. 0. 0. 0. 0. 0. 4.16666679e-02 4.16666679e-02 0. 0. 0. 0.
      0. 0. 8.33333358e-02 0. 0. 4.16666679e-02 4.16666679e-02 0.
      4.16666679e-02 0. 0. 0. 0. 0. 0. 0. 0. 0. 0. 0. 0. 0. 0. 0. 0. 0.
      0. 0. 0. 0. 0. 0. 0. 0. 0. 0. 4.16666679e-02 0. 4.16666679e-02 0.
      0. 0. 0. 0. 0. 4.16666679e-02 0. 0. 0. 4.16666679e-02
      4.16666679e-02 0. 0. 0. 0. 0. 0. 0. 4.16666679e-02 0. 0. 0.
      4.16666679e-02 0. 0. 0. 0. 4.16666679e-02 0. 4.16666679e-02 0.
      4.16666679e-02 1.25000000e-01 0. 0. 0. 0. 0. 0. 0. 0. 0. 0. 0. 0.
      0. 0. 0. 0. 0. 0. 0. 0. 4.16666679e-02 0. 4.16666679e-02 0. 0. 0.
      0. 4.16666679e-02 0. 4.16666679e-02 0. 0. 0. 0. 0. 0. 0. 0. 0. 0.
      0.</_>
    <_>
      0. 0. 0. 0. 0. 0. 0. 0. 0. 0. 0. 0. 0. 0. 0. 0. 0. 0. 0. 0. 0. 0.
      0. 0. 1.66666672e-01 0. 0. 0. 0. 0. 0. 3.33333343e-01 0. 0. 0. 0.
      0. 0. 0. 0. 1.66666672e-01 0. 0. 0. 0. 0. 0. 0. 0. 0. 0. 0. 0. 0.
      0. 0. 0. 0. 0. 0. 0. 0. 0. 0. 0. 0. 0. 0. 0. 0. 0. 0. 0. 0.
      1.66666672e-01 0. 0. 0. 0. 0. 0. 0. 1.66666672e-01 0. 0. 0. 0. 0.
      0. 0. 0. 0. 0. 0. 0. 0. 0. 0. 0. 0. 0. 0. 0. 0. 0. 0. 0. 0. 0. 0.
      0. 0. 0. 0. 0. 0. 0. 0. 0. 0. 0. 0. 0. 0. 0. 0. 0. 0.</_>
    <_>
      1.00000001e-01 0. 0. 0. 0. 0. 1.00000001e-01 0. 0. 0. 0. 0. 0. 0.
      0. 1.00000001e-01 0. 0. 0. 0. 0. 0. 0. 0. 0. 0. 0. 0. 0. 0. 0. 0.
      0. 0. 0. 0. 0. 0. 0. 0. 0. 0. 0. 0. 0. 1.00000001e-01 0. 0.
      1.00000001e-01 0. 0. 0. 0. 0. 0. 0. 0. 1.00000001e-01 0. 0. 0. 0.
      0. 0. 0. 0. 0. 0. 1.00000001e-01 0. 0. 0. 0. 0. 0. 0. 0. 0. 0. 0.
      0. 0. 0. 0. 0. 0. 0. 1.00000001e-01 0. 0. 0. 0. 0. 1.00000001e-01
      0. 0. 0. 0. 1.00000001e-01 0. 0. 0. 0. 0. 0. 0. 0. 0. 0. 0. 0. 0.
      0. 0. 0. 0. 0. 0. 0. 0. 0. 0. 0. 0. 0. 0. 0. 0.</_>
    <_>
      0. 0. 0. 0. 0. 0. 0. 0. 0. 1.25000000e-01 0. 0. 0. 0. 0. 0. 0. 0.
      0. 0. 0. 0. 0. 0. 1.25000000e-01 0. 0. 0. 0. 0. 0. 0. 0. 0. 0. 0.
      0. 0. 0. 0. 0. 0. 0. 0. 0. 0. 0. 0. 0. 0. 0. 0. 0. 0. 0. 0.
      2.50000000e-01 0. 0. 0. 0. 0. 0. 0. 0. 1.25000000e-01 0. 0. 0. 0.
      0. 0. 0. 0. 0. 0. 0. 0. 0. 0. 0. 0. 0. 0. 1.25000000e-01 0. 0. 0.
      0. 0. 0. 0. 0. 0. 0. 0. 0. 0. 0. 1.25000000e-01 0. 0. 0. 0. 0. 0.
      0. 0. 0. 0. 0. 0. 0. 0. 0. 0. 0. 0. 0. 0. 0. 0. 0. 0. 0. 0.
      1.25000000e-01 0.</_>
    <_>
      0. 0. 0. 0. 0. 0. 0. 0. 0. 0. 0. 0. 0. 0. 0. 0. 0. 0. 0. 0. 0. 0.
      0. 0. 0. 0. 0. 0. 0. 0. 0. 0. 0. 0. 0. 0. 0. 1.11111112e-01 0. 0.
      0. 0. 0. 1.11111112e-01 0. 0. 0. 0. 0. 0. 1.11111112e-01 0. 0. 0.
      0. 0. 0. 1.11111112e-01 0. 0. 0. 0. 0. 0. 0. 0. 0. 0. 0. 0. 0. 0.
      0. 0. 0. 0. 0. 0. 0. 0. 0. 0. 0. 1.11111112e-01 0. 0. 0. 0. 0. 0.
      0. 0. 0. 0. 0. 1.11111112e-01 0. 0. 0. 0. 0. 0. 0. 0. 0. 0.
      2.22222224e-01 0. 0. 0. 0. 0. 0. 0. 0. 0. 1.11111112e-01 0. 0. 0.
      0. 0. 0. 0. 0. 0. 0. 0.</_>
    <_>
      0. 0. 0. 0. 0. 0. 0. 0. 0. 0. 0. 0. 0. 0. 0. 0. 0. 0. 0.
      1.25000000e-01 0. 0. 0. 0. 0. 0. 0. 0. 0. 0. 0. 0. 0. 0. 0. 0. 0.
      0. 0. 2.50000000e-01 0. 0. 0. 0. 0. 0. 0. 0. 0. 0. 0. 0. 0. 0. 0.
      0. 0. 0. 0. 0. 0. 0. 0. 0. 1.25000000e-01 0. 0. 0. 0. 0. 0. 0. 0.
      0. 0. 0. 0. 0. 0. 0. 0. 0. 1.25000000e-01 0. 0. 0. 1.25000000e-01
      0. 0. 0. 0. 0. 0. 0. 1.25000000e-01 0. 0. 0. 0. 0. 0. 0. 0. 0. 0.
      0. 0. 0. 0. 0. 0. 0. 1.25000000e-01 0. 0. 0. 0. 0. 0. 0. 0. 0. 0.
      0. 0. 0. 0. 0.</_>
    <_>
      0. 0. 0. 0. 0. 0. 0. 0. 0. 0. 0. 0. 0. 0. 0. 0. 0. 0. 0. 0.
      7.69230798e-02 0. 0. 0. 0. 0. 0. 0. 0. 0. 0. 0. 0. 0. 0. 0. 0. 0.
      0. 0. 0. 7.69230798e-02 0. 0. 0. 0. 7.69230798e-02 0. 0. 0. 0. 0.
      0. 0. 0. 0. 1.53846160e-01 0. 0. 0. 0. 0. 0. 0. 0. 0. 0. 0. 0. 0.
      0. 0. 0. 0. 0. 0. 0. 0. 0. 0. 7.69230798e-02 7.69230798e-02 0. 0.
      0. 0. 0. 0. 0. 0. 0. 0. 0. 0. 0. 0. 0. 7.69230798e-02 0.
      7.69230798e-02 0. 0. 0. 0. 0. 0. 0. 0. 0. 0. 0. 0. 0. 0. 0. 0.
      7.69230798e-02 0. 1.53846160e-01 0. 0. 0. 0. 7.69230798e-02 0. 0.
      0. 0.</_>
    <_>
      0. 0. 0. 0. 0. 0. 0. 0. 8.33333358e-02 0. 0. 0. 0. 0.
      8.33333358e-02 0. 0. 0. 0. 0. 0. 0. 0. 0. 0. 0. 0. 0. 0. 0. 0. 0.
      0. 0. 0. 0. 0. 8.33333358e-02 0. 0. 0. 0. 0. 0. 0. 1.66666672e-01
      0. 0. 0. 0. 0. 0. 0. 0. 0. 0. 0. 0. 0. 0. 0. 0. 0. 0. 0. 0. 0.
      8.33333358e-02 0. 0. 0. 0. 0. 0. 0. 0. 8.33333358e-02 0. 0. 0. 0.
      0. 0. 0. 0. 0. 0. 0. 8.33333358e-02 0. 0. 0. 0. 1.66666672e-01 0.
      0. 0. 0. 0. 0. 0. 0. 0. 0. 0. 0. 0. 0. 0. 0. 0. 0. 0. 0. 0. 0. 0.
      0. 0. 0. 0. 0. 0. 0. 0. 0. 1.66666672e-01 0.</_>
    <_>
      0. 0. 0. 0. 0. 0. 0. 0. 0. 0. 0. 0. 0. 0. 0. 0. 0. 0. 0. 0. 0. 0.
      0. 0. 0. 0. 0. 0. 0. 0. 0. 0. 7.69230798e-02 0. 7.69230798e-02 0.
      0. 0. 0. 0. 0. 0. 0. 0. 0. 0. 0. 0. 0. 0. 0. 0. 0. 0. 0. 0. 0. 0.
      0. 0. 0. 0. 0. 0. 0. 7.69230798e-02 1.53846160e-01 0. 0. 0. 0. 0.
      0. 0. 1.53846160e-01 0. 0. 0. 0. 0. 0. 0. 7.69230798e-02 0. 0. 0.
      0. 0. 0. 7.69230798e-02 0. 7.69230798e-02 7.69230798e-02 0. 0. 0.
      0. 0. 0. 0. 7.69230798e-02 0. 0. 0. 0. 0. 0. 0. 0. 0. 0. 0. 0. 0.
      0. 0. 0. 0. 0. 7.69230798e-02 0. 0. 0. 0. 0. 0. 0. 0.</_>
    <_>
      0. 0. 0. 0. 0. 0. 0. 0. 0. 0. 0. 0. 0. 0. 0. 0. 0. 0. 0. 0. 0. 0.
      0. 0. 0. 0. 0. 0. 0. 0. 0. 1.00000001e-01 0. 0. 0. 0. 0. 0.
      1.00000001e-01 0. 0. 0. 0. 0. 0. 0. 0. 0. 1.00000001e-01 0. 0. 0.
      0. 0. 0. 0. 0. 0. 0. 0. 0. 1.00000001e-01 0. 0. 0. 0. 0. 0. 0. 0.
      0. 0. 0. 0. 0. 1.00000001e-01 2.00000003e-01 0. 0. 0. 0. 0.
      1.00000001e-01 0. 0. 0. 0. 0. 0. 0. 0. 0. 0. 0. 0. 0. 0.
      1.00000001e-01 0. 0. 0. 0. 0. 0. 0. 0. 0. 0. 0. 0. 0. 0. 0. 0. 0.
      0. 0. 0. 0. 0. 0. 0. 0. 0. 0. 0. 1.00000001e-01 0.</_>
    <_>
      0. 0. 9.09090936e-02 0. 0. 0. 0. 0. 0. 0. 0. 0. 0. 0. 0. 0. 0. 0.
      0. 0. 0. 0. 0. 0. 0. 0. 0. 0. 0. 0. 0. 0. 9.09090936e-02 0. 0. 0.
      0. 0. 0. 0. 0. 0. 0. 0. 9.09090936e-02 9.09090936e-02 0.
      9.09090936e-02 0. 0. 0. 0. 0. 0. 0. 0. 0. 0. 0. 0. 0. 0. 0. 0. 0.
      0. 0. 0. 9.09090936e-02 0. 0. 0. 0. 0. 0. 0. 0. 9.09090936e-02 0.
      0. 1.81818187e-01 0. 0. 0. 0. 0. 0. 0. 0. 0. 0. 0. 0. 0. 0. 0. 0.
      0. 0. 0. 0. 0. 0. 0. 0. 0. 0. 0. 0. 0. 0. 0. 0. 0. 9.09090936e-02
      0. 0. 0. 0. 0. 0. 0. 0. 0. 0. 0. 9.09090936e-02 0.</_>
    <_>
      1.42857149e-01 0. 0. 0. 0. 0. 0. 0. 0. 0. 0. 0. 0. 0. 0. 0. 0. 0.
      0. 0. 0. 0. 0. 0. 0. 0. 0. 0. 0. 0. 0. 0. 0. 0. 0. 0.
      1.42857149e-01 0. 0. 0. 0. 0. 0. 0. 0. 0. 0. 0. 0. 0. 0. 0. 0. 0.
      0. 0. 0. 0. 1.42857149e-01 0. 0. 0. 0. 0. 0. 0. 0. 0. 0. 0. 0. 0.
      0. 0. 0. 0. 0. 0. 0. 1.42857149e-01 1.42857149e-01 0. 0. 0. 0. 0.
      0. 0. 0. 0. 0. 0. 0. 0. 0. 1.42857149e-01 0. 0. 0. 0. 0. 0. 0. 0.
      0. 0. 0. 0. 0. 0. 1.42857149e-01 0. 0. 0. 0. 0. 0. 0. 0. 0. 0. 0.
      0. 0. 0. 0. 0. 0.</_>
    <_>
      0. 0. 0. 0. 0. 5.88235296e-02 0. 0. 0. 5.88235296e-02 0. 0. 0. 0.
      5.88235296e-02 0. 0. 0. 0. 0. 0. 0. 5.88235296e-02 0. 0. 0. 0. 0.
      0. 0. 0. 0. 0. 5.88235296e-02 5.88235296e-02 0. 5.88235296e-02 0.
      0. 0. 0. 0. 0. 0. 0. 0. 0. 0. 0. 0. 0. 5.88235296e-02 0. 0. 0. 0.
      0. 0. 0. 0. 0. 0. 0. 0. 0. 5.88235296e-02 0. 0. 5.88235296e-02 0.
      0. 0. 0. 0. 0. 0. 0. 0. 5.88235296e-02 0. 0. 0. 0. 0. 0. 0.
      5.88235296e-02 0. 0. 0. 0. 0. 0. 0. 0. 0. 5.88235296e-02 0. 0. 0.
      5.88235296e-02 0. 0. 0. 0. 0. 0. 0. 0. 0. 0. 5.88235296e-02 0. 0.
      0. 0. 0. 0. 0. 0. 0. 0. 0. 5.88235296e-02 0. 5.88235296e-02 0. 0.</_>
    <_>
      0. 0. 0. 0. 0. 0. 0. 0. 0. 0. 0. 0. 0. 0. 0. 0. 0. 0. 0. 0. 0. 0.
      0. 0. 0. 0. 0. 0. 0. 0. 0. 0. 0. 0. 0. 0. 0. 0. 0. 0. 0. 0. 0. 0.
      0. 0. 0. 0. 0. 0. 0. 0. 0. 0. 0. 0. 0. 0. 0. 0. 0. 0. 0. 0. 0. 0.
      0. 0. 0. 0. 0. 0. 0. 0. 0. 0. 0. 0. 0. 0. 0. 0. 0. 0. 0. 0. 0. 0.
      2.50000000e-01 0. 2.50000000e-01 0. 0. 0. 0. 0. 0. 0. 0. 0. 0. 0.
      0. 0. 0. 0. 0. 0. 0. 0. 0. 0. 0. 0. 5.00000000e-01 0. 0. 0. 0. 0.
      0. 0. 0. 0. 0. 0. 0. 0.</_>
    <_>
      0. 0. 0. 0. 0. 0. 0. 0. 8.33333358e-02 0. 0. 0. 0. 0. 0. 0. 0. 0.
      0. 0. 0. 0. 0. 0. 0. 0. 0. 0. 0. 0. 0. 0. 0. 0. 0. 0. 0. 0. 0. 0.
      0. 0. 0. 8.33333358e-02 0. 0. 0. 1.66666672e-01 0. 0. 0. 0. 0. 0.
      0. 0. 0. 0. 0. 1.66666672e-01 0. 0. 0. 0. 0. 0. 0. 0. 0. 0. 0. 0.
      0. 0. 0. 0. 0. 0. 0. 0. 0. 0. 0. 0. 0. 0. 1.66666672e-01 0. 0. 0.
      0. 0. 0. 0. 0. 0. 0. 0. 8.33333358e-02 0. 0. 0. 0. 0. 0. 0. 0. 0.
      0. 0. 0. 8.33333358e-02 0. 0. 1.66666672e-01 0. 0. 0. 0. 0. 0. 0.
      0. 0. 0. 0. 0. 0.</_>
    <_>
      0. 0. 0. 0. 0. 0. 0. 0. 0. 0. 0. 0. 0. 0. 0. 0. 6.66666701e-02 0.
      0. 1.33333340e-01 0. 0. 0. 0. 0. 0. 6.66666701e-02 0. 0. 0.
      6.66666701e-02 0. 0. 0. 0. 0. 6.66666701e-02 0. 0. 0. 0.
      6.66666701e-02 0. 0. 0. 0. 0. 0. 0. 0. 0. 0. 0. 0. 0. 0. 0. 0.
      6.66666701e-02 0. 0. 0. 0. 0. 0. 0. 0. 0. 0. 0. 0. 0.
      6.66666701e-02 0. 6.66666701e-02 0. 0. 0. 0. 0. 0. 0. 0. 0.
      6.66666701e-02 0. 0. 0. 0. 0. 0. 0. 0. 6.66666701e-02 0. 0. 0. 0.
      0. 0. 0. 0. 6.66666701e-02 0. 0. 0. 0. 0. 0. 0. 0. 0.
      6.66666701e-02 0. 0. 0. 0. 0. 0. 6.66666701e-02 0. 0. 0. 0. 0. 0.
      0. 0.</_>
    <_>
      0. 0. 0. 0. 0. 0. 0. 0. 0. 5.26315793e-02 0. 0. 0. 0.
      5.26315793e-02 0. 5.26315793e-02 0. 0. 0. 0. 0. 0. 0. 0. 0. 0. 0.
      0. 0. 0. 0. 0. 5.26315793e-02 5.26315793e-02 0. 0. 0. 0. 0. 0. 0.
      0. 0. 0. 0. 0. 5.26315793e-02 0. 0. 0. 5.26315793e-02 0. 0.
      5.26315793e-02 0. 0. 5.26315793e-02 0. 0. 0. 0. 0. 5.26315793e-02
      0. 0. 0. 0. 0. 0. 0. 0. 0. 0. 0. 0. 5.26315793e-02 5.26315793e-02
      0. 0. 0. 0. 0. 0. 0. 0. 0. 0. 0. 5.26315793e-02 0. 5.26315793e-02
      0. 5.26315793e-02 5.26315793e-02 0. 0. 0. 0. 0. 0. 5.26315793e-02
      5.26315793e-02 0. 0. 0. 0. 0. 0. 0. 0. 0. 0. 0. 0. 0. 0. 0. 0. 0.
      0. 0. 0. 0. 0. 0. 5.26315793e-02 0.</_>
    <_>
      0. 0. 0. 0. 0. 0. 0. 0. 0. 0. 0. 0. 0. 0. 0. 0. 1.11111112e-01 0.
      0. 1.11111112e-01 0. 0. 0. 0. 1.11111112e-01 0. 1.11111112e-01 0.
      0. 0. 0. 0. 0. 0. 0. 0. 0. 0. 0. 1.11111112e-01 0. 0. 0. 0. 0. 0.
      1.11111112e-01 0. 0. 0. 0. 0. 0. 0. 0. 0. 0. 0. 0. 0. 0.
      1.11111112e-01 0. 0. 1.11111112e-01 0. 0. 0. 0. 0. 0. 0. 0. 0. 0.
      0. 0. 0. 0. 0. 0. 0. 0. 0. 0. 0. 0. 0. 0. 0. 1.11111112e-01 0. 0.
      0. 0. 0. 0. 0. 0. 0. 0. 0. 0. 0. 0. 0. 0. 0. 0. 0. 0. 0. 0. 0. 0.
      0. 0. 0. 0. 0. 0. 0. 0. 0. 0. 0. 0. 0.</_>
    <_>
